575 100
</s> 0.09663 -0.022362 0.052498 0.33965 -0.13741 0.14464 0.087341 -0.080193 0.019226 0.21123 -0.047333 0.11764 -0.016213 -0.052546 0.24105 0.10357 0.038547 0.12784 -0.041929 0.15789 0.15299 0.048174 0.05474 -0.15942 -0.30027 -0.4022 -0.022287 0.20726 -0.061663 -0.017024 0.17346 0.29793 0.028535 -0.17305 0.16286 0.087461 -0.04664 0.011054 -0.2698 -0.12437 -0.20214 0.12823 0.18068 0.038866 0.1837 -0.14703 0.38333 -0.10996 -0.018288 -0.23244 -0.061685 0.2796 0.009371 -0.049876 0.06106 0.065428 -0.00077142 -0.22625 0.19226 -0.035784 0.020354 0.016883 0.11048 0.15483 0.036034 -0.0080298 -0.20694 0.3131 -0.12991 -0.078397 -0.21037 -0.092593 0.044102 0.009177 -0.069616 -0.077375 0.033858 -0.28405 0.21551 -0.10834 0.12022 -0.045779 -0.37144 0.15757 0.4547 0.038911 -0.069087 0.21242 -0.19033 0.25198 0.27648 0.082815 0.16156 -0.028104 0.14621 -0.10782 0.2755 0.094693 0.0139 -0.024906 
the 0.10052 -0.025479 0.061763 0.35497 -0.13887 0.15282 0.091443 -0.083454 0.019046 0.22035 -0.050573 0.12007 -0.021296 -0.054096 0.25177 0.10729 0.044545 0.13453 -0.044775 0.16308 0.15642 0.051973 0.058111 -0.16604 -0.31373 -0.42044 -0.02745 0.21647 -0.06978 -0.017006 0.17579 0.30984 0.029239 -0.18459 0.16701 0.09416 -0.053613 0.012633 -0.28034 -0.12976 -0.21161 0.13058 0.18723 0.040636 0.19247 -0.15201 0.40493 -0.11414 -0.018432 -0.24398 -0.064318 0.29308 0.011388 -0.051489 0.063378 0.073169 0.0021446 -0.23335 0.20034 -0.033146 0.022607 0.016716 0.11276 0.16575 0.041654 -0.0058328 -0.21797 0.32797 -0.13681 -0.08005 -0.2149 -0.095432 0.047939 0.0080933 -0.076203 -0.084022 0.037633 -0.30066 0.23149 -0.11016 0.13012 -0.05089 -0.38801 0.16639 0.47972 0.043043 -0.070535 0.22084 -0.20189 0.26618 0.28719 0.085045 0.17001 -0.03137 0.15396 -0.11326 0.28807 0.092453 0.015213 -0.026636 
to 0.10614 -0.02377 0.063265 0.35838 -0.14515 0.15142 0.090873 -0.087923 0.023875 0.22601 -0.054282 0.12762 -0.026962 -0.058583 0.25368 0.11072 0.046058 0.13254 -0.043692 0.17082 0.16358 0.048669 0.052056 -0.17407 -0.31881 -0.42516 -0.023957 0.21534 -0.074805 -0.018649 0.18251 0.31132 0.037182 -0.1841 0.16709 0.092992 -0.051035 0.016873 -0.28236 -0.12918 -0.21561 0.13952 0.1881 0.037357 0.19282 -0.15549 0.41142 -0.11172 -0.016643 -0.24224 -0.069221 0.29971 0.011269 -0.054466 0.061772 0.074174 5.9525e-05 -0.24311 0.19747 -0.039188 0.022358 0.01811 0.11565 0.17129 0.038765 -0.0058587 -0.21613 0.3336 -0.13642 -0.084387 -0.21726 -0.097023 0.045053 0.0071304 -0.074849 -0.08135 0.038553 -0.30691 0.23314 -0.11759 0.13424 -0.052482 -0.39985 0.16312 0.48218 0.036862 -0.073636 0.22975 -0.20053 0.26822 0.29276 0.086574 0.17411 -0.031648 0.15627 -0.11361 0.29261 0.1028 0.016691 -0.019512 
and 0.098617 -0.018634 0.053401 0.33929 -0.13515 0.1486 0.087536 -0.076818 0.014823 0.20883 -0.047764 0.1223 -0.016888 -0.050205 0.24123 0.10025 0.039086 0.12757 -0.041589 0.15711 0.15251 0.04692 0.052779 -0.16344 -0.30264 -0.40422 -0.019811 0.20956 -0.064207 -0.017878 0.17406 0.29835 0.029723 -0.17276 0.16278 0.090742 -0.043915 0.0099157 -0.26758 -0.12362 -0.20028 0.12614 0.18162 0.040426 0.18315 -0.1452 0.38711 -0.11393 -0.013724 -0.23004 -0.061556 0.28003 0.0074236 -0.04661 0.058433 0.06295 0.0042964 -0.22641 0.19469 -0.036122 0.018464 0.016822 0.10624 0.15551 0.038739 -0.011016 -0.21173 0.30909 -0.13045 -0.077534 -0.20505 -0.097649 0.045635 0.0049321 -0.066844 -0.075732 0.035372 -0.28557 0.21575 -0.10776 0.12147 -0.044461 -0.37468 0.15295 0.45643 0.03991 -0.067229 0.20992 -0.19175 0.25263 0.27345 0.083438 0.16518 -0.031912 0.14653 -0.11183 0.27517 0.086069 0.011731 -0.022172 
of 0.099765 -0.021249 0.057089 0.33896 -0.13028 0.14801 0.087666 -0.079444 0.020377 0.21038 -0.049765 0.11672 -0.020558 -0.053501 0.24668 0.10287 0.039288 0.1271 -0.043509 0.16412 0.15006 0.050703 0.052438 -0.15771 -0.29819 -0.4026 -0.024258 0.20787 -0.063687 -0.014961 0.17182 0.29733 0.030002 -0.17467 0.16411 0.094379 -0.050902 0.012335 -0.26562 -0.12597 -0.20338 0.12413 0.18643 0.040238 0.1825 -0.14761 0.38313 -0.10952 -0.012128 -0.23349 -0.062498 0.28381 0.0081987 -0.049482 0.064545 0.065682 -0.0047871 -0.22245 0.18912 -0.031515 0.023295 0.016378 0.10921 0.15211 0.040853 -0.0053866 -0.20169 0.31026 -0.12858 -0.075864 -0.20822 -0.092577 0.041085 0.0074902 -0.075148 -0.075252 0.034985 -0.29074 0.21303 -0.1034 0.11904 -0.041889 -0.36903 0.15598 0.45265 0.035546 -0.062127 0.21233 -0.1914 0.25443 0.27268 0.080218 0.16325 -0.03346 0.15314 -0.10667 0.2706 0.085956 0.0087794 -0.025415 
a 0.10064 -0.0172 0.060015 0.34358 -0.13333 0.1446 0.078368 -0.086413 0.011316 0.21252 -0.05488 0.11993 -0.0189 -0.051886 0.2446 0.10969 0.040375 0.11871 -0.033657 0.1562 0.15323 0.04871 0.054009 -0.1688 -0.29792 -0.39921 -0.028337 0.20611 -0.072589 -0.023476 0.17152 0.30749 0.03076 -0.18271 0.16797 0.092912 -0.04701 0.0051269 -0.27384 -0.11478 -0.21074 0.12423 0.18382 0.037989 0.19423 -0.15264 0.3871 -0.11774 -0.019441 -0.23308 -0.069461 0.28246 0.0024071 -0.040269 0.06894 0.068722 0.0025419 -0.22611 0.19347 -0.030895 0.016862 0.018116 0.11743 0.15702 0.04104 -0.0042446 -0.21381 0.3175 -0.13621 -0.078013 -0.21223 -0.089495 0.053081 0.0024918 -0.076936 -0.078428 0.034835 -0.29955 0.21722 -0.10792 0.12424 -0.039372 -0.37493 0.16553 0.46684 0.043318 -0.07482 0.22062 -0.19809 0.25655 0.27621 0.083567 0.16072 -0.027332 0.15007 -0.10492 0.27835 0.087046 0.015867 -0.025216 
in 0.10829 -0.027605 0.060907 0.35405 -0.13811 0.1529 0.091614 -0.087409 0.014689 0.22171 -0.055347 0.12524 -0.019156 -0.051276 0.25431 0.1095 0.045512 0.13489 -0.040423 0.16731 0.1594 0.048176 0.056376 -0.16793 -0.31144 -0.41966 -0.031273 0.21821 -0.069854 -0.017142 0.17642 0.30927 0.027622 -0.18734 0.16955 0.095046 -0.042333 0.010894 -0.28297 -0.1276 -0.21227 0.13389 0.19157 0.035099 0.18847 -0.15365 0.41046 -0.1188 -0.021115 -0.24408 -0.061701 0.29794 0.0070489 -0.052296 0.066123 0.069709 -0.0032123 -0.23524 0.20466 -0.035857 0.02506 0.018639 0.11459 0.15956 0.0359 -0.0068813 -0.21599 0.33012 -0.13258 -0.077134 -0.22063 -0.099743 0.042664 0.008012 -0.076688 -0.085241 0.038923 -0.30794 0.22784 -0.10805 0.12666 -0.045139 -0.38887 0.1645 0.4813 0.040038 -0.065325 0.22652 -0.2008 0.26302 0.28946 0.085377 0.16714 -0.027902 0.15373 -0.11093 0.28243 0.092592 0.017906 -0.025609 
that 0.099938 -0.02127 0.055557 0.3501 -0.13814 0.14765 0.091333 -0.083946 0.01769 0.21601 -0.049991 0.12115 -0.017277 -0.05453 0.25217 0.10514 0.042411 0.13016 -0.045637 0.16302 0.1572 0.046449 0.055245 -0.16727 -0.30958 -0.41705 -0.025621 0.21654 -0.065427 -0.017439 0.17809 0.31028 0.028282 -0.17897 0.16479 0.091141 -0.047284 0.013651 -0.27777 -0.1278 -0.2082 0.12907 0.19001 0.036464 0.18737 -0.15178 0.39619 -0.11497 -0.018823 -0.24112 -0.062598 0.2902 0.010748 -0.047144 0.063965 0.069602 0.00051805 -0.22978 0.19664 -0.035159 0.025329 0.014267 0.11058 0.16519 0.039063 -0.0067771 -0.21204 0.32207 -0.1349 -0.082741 -0.21369 -0.098022 0.044579 0.010599 -0.072606 -0.081775 0.034125 -0.29753 0.22501 -0.10914 0.12391 -0.04838 -0.38349 0.16013 0.47217 0.043472 -0.067889 0.21896 -0.19469 0.26065 0.28431 0.0819 0.16961 -0.034419 0.14893 -0.11117 0.28605 0.091893 0.016756 -0.025478 
on 0.096282 -0.023811 0.057637 0.34734 -0.13472 0.14591 0.083219 -0.080566 0.017128 0.21863 -0.050835 0.11663 -0.017624 -0.055177 0.2518 0.10765 0.04181 0.12765 -0.037933 0.16704 0.15869 0.047527 0.051889 -0.16981 -0.31472 -0.41366 -0.022411 0.21216 -0.067801 -0.017357 0.17856 0.31459 0.030952 -0.18348 0.16668 0.089313 -0.046738 0.014142 -0.27269 -0.12549 -0.21022 0.13142 0.19115 0.036481 0.19463 -0.14925 0.40105 -0.11167 -0.018832 -0.241 -0.063564 0.29418 -8.6491e-05 -0.042913 0.063165 0.067992 0.0044621 -0.2383 0.20118 -0.035632 0.021852 0.010205 0.11363 0.16792 0.040053 -0.0066421 -0.21387 0.32445 -0.1304 -0.080765 -0.20865 -0.099773 0.047161 0.0073382 -0.068486 -0.077476 0.036699 -0.29496 0.22801 -0.107 0.12955 -0.049758 -0.3873 0.15961 0.46988 0.045319 -0.064329 0.2216 -0.19624 0.26045 0.28295 0.081803 0.17148 -0.034405 0.15035 -0.11443 0.28409 0.096325 0.014575 -0.027548 
Equifax 0.10462 -0.025121 0.061367 0.36599 -0.14441 0.15377 0.093179 -0.08588 0.019747 0.22504 -0.053935 0.12661 -0.019736 -0.057703 0.26177 0.11054 0.046811 0.13665 -0.044578 0.16903 0.16285 0.052423 0.056757 -0.17161 -0.32411 -0.4338 -0.026514 0.22278 -0.069618 -0.016306 0.18591 0.32052 0.032249 -0.18976 0.17498 0.096958 -0.049687 0.012645 -0.28862 -0.12982 -0.21625 0.13412 0.19377 0.039693 0.1979 -0.15646 0.41454 -0.11787 -0.01774 -0.25071 -0.067269 0.30311 0.0067931 -0.048176 0.069144 0.071058 0.00076891 -0.24091 0.20536 -0.039117 0.024267 0.01635 0.11578 0.17 0.040888 -0.0069083 -0.22393 0.33738 -0.13951 -0.080479 -0.22109 -0.10108 0.047549 0.010044 -0.073787 -0.086908 0.034396 -0.31112 0.23284 -0.11403 0.13165 -0.051429 -0.40406 0.16969 0.49355 0.043923 -0.071102 0.23017 -0.20516 0.27297 0.2953 0.087426 0.17704 -0.032726 0.15446 -0.11333 0.29746 0.09713 0.01573 -0.025835 
said 0.108 -0.026973 0.06276 0.36332 -0.14072 0.15833 0.095081 -0.087954 0.016931 0.22592 -0.056119 0.12607 -0.021306 -0.055234 0.26225 0.11122 0.04579 0.1366 -0.0464 0.17025 0.16106 0.050975 0.05816 -0.17415 -0.32411 -0.43132 -0.026023 0.22048 -0.068061 -0.01683 0.18561 0.32057 0.031949 -0.18992 0.17465 0.09645 -0.05051 0.012976 -0.2907 -0.13623 -0.21582 0.13318 0.19214 0.036326 0.19608 -0.15799 0.41408 -0.11937 -0.017905 -0.2524 -0.067392 0.30082 0.011099 -0.051867 0.066597 0.072445 0.0013102 -0.24284 0.2053 -0.03692 0.023605 0.017835 0.11775 0.16801 0.038048 -0.0036527 -0.22352 0.33644 -0.14063 -0.08063 -0.22026 -0.1034 0.046118 0.009304 -0.074051 -0.085932 0.036368 -0.3086 0.23576 -0.11691 0.13013 -0.050965 -0.40375 0.16906 0.49008 0.044094 -0.071442 0.22969 -0.20828 0.27561 0.29399 0.086252 0.17879 -0.03652 0.15887 -0.11542 0.29744 0.097813 0.015965 -0.022348 
by 0.095797 -0.027095 0.051411 0.3319 -0.13307 0.14098 0.089109 -0.077871 0.010418 0.20498 -0.051356 0.11242 -0.010409 -0.056405 0.2364 0.097185 0.04121 0.12157 -0.039073 0.15712 0.14894 0.052485 0.055948 -0.15415 -0.29385 -0.39302 -0.031351 0.20343 -0.066146 -0.013366 0.17097 0.28946 0.029276 -0.17297 0.15337 0.085246 -0.041495 0.0094047 -0.2692 -0.11941 -0.19505 0.11964 0.17405 0.04198 0.17705 -0.14085 0.37845 -0.10907 -0.013942 -0.22134 -0.058341 0.26882 0.0056407 -0.049328 0.065127 0.062943 0.00057518 -0.22271 0.19215 -0.040476 0.020021 0.018698 0.10721 0.15656 0.038187 -0.015372 -0.20253 0.30488 -0.13155 -0.077743 -0.20549 -0.097982 0.042199 0.01065 -0.068775 -0.07273 0.03334 -0.28303 0.21423 -0.10306 0.12209 -0.048594 -0.37195 0.15647 0.43991 0.044018 -0.063445 0.21003 -0.18522 0.24555 0.26893 0.082205 0.16075 -0.024767 0.15044 -0.10006 0.26617 0.08821 0.01387 -0.024714 
data 0.10186 -0.023931 0.056802 0.34084 -0.13312 0.14569 0.085954 -0.082512 0.018614 0.21021 -0.049665 0.1163 -0.020981 -0.053968 0.24694 0.10223 0.04297 0.1253 -0.041807 0.1607 0.1538 0.048024 0.055962 -0.1616 -0.30345 -0.40673 -0.027171 0.2101 -0.064314 -0.017951 0.17492 0.29934 0.032456 -0.17649 0.15975 0.087123 -0.043444 0.012204 -0.27167 -0.12292 -0.20178 0.12638 0.18337 0.033916 0.18347 -0.1487 0.38451 -0.10774 -0.016254 -0.23709 -0.060222 0.28144 0.0083076 -0.048162 0.062243 0.065458 0.0026322 -0.22664 0.19163 -0.034445 0.024285 0.015631 0.10753 0.15742 0.033398 -0.0046349 -0.20917 0.3129 -0.12874 -0.0784 -0.20749 -0.094847 0.040165 0.0090773 -0.071777 -0.07839 0.034402 -0.29054 0.21931 -0.10599 0.11821 -0.046613 -0.37613 0.16078 0.45983 0.040506 -0.066834 0.21255 -0.19129 0.25708 0.27745 0.08209 0.16574 -0.031485 0.14982 -0.11136 0.27538 0.091854 0.011843 -0.023629 
it 0.097885 -0.021171 0.058846 0.31348 -0.1251 0.13833 0.078772 -0.074867 0.019868 0.19308 -0.044962 0.1099 -0.024778 -0.047389 0.21939 0.10045 0.036304 0.11964 -0.037271 0.14368 0.13389 0.043939 0.044726 -0.14729 -0.27461 -0.37273 -0.024346 0.19581 -0.05914 -0.014677 0.1624 0.27618 0.021918 -0.16566 0.15488 0.079643 -0.043631 0.0081009 -0.24789 -0.11571 -0.17991 0.11682 0.16327 0.039539 0.17327 -0.13243 0.35203 -0.10117 -0.018282 -0.21713 -0.056027 0.26032 0.0093732 -0.043152 0.053939 0.062339 -0.0052015 -0.20599 0.1688 -0.03336 0.019173 0.0096433 0.096897 0.14876 0.038301 -0.0034048 -0.19049 0.293 -0.11555 -0.073207 -0.1883 -0.086738 0.035835 0.010765 -0.067366 -0.076106 0.031939 -0.26489 0.20094 -0.09524 0.11391 -0.039848 -0.34049 0.14357 0.41722 0.039662 -0.054069 0.19784 -0.17825 0.23649 0.25371 0.076104 0.15209 -0.028567 0.13481 -0.095287 0.25395 0.081813 0.016282 -0.018382 
for 0.10715 -0.023003 0.058083 0.36051 -0.14403 0.14992 0.0952 -0.089173 0.01677 0.22001 -0.05235 0.12763 -0.02321 -0.055326 0.256 0.11074 0.046863 0.13381 -0.045944 0.16933 0.16088 0.053526 0.058136 -0.16978 -0.31577 -0.42543 -0.029066 0.21693 -0.066342 -0.019522 0.18325 0.31591 0.029087 -0.18792 0.17069 0.090614 -0.046205 0.011383 -0.28357 -0.13247 -0.21544 0.13496 0.18992 0.041358 0.19417 -0.15943 0.40629 -0.11446 -0.014841 -0.25043 -0.065744 0.29608 0.010124 -0.050821 0.065362 0.070887 0.0034301 -0.23723 0.20088 -0.040811 0.019856 0.018058 0.11334 0.16515 0.038941 -0.0043867 -0.21955 0.33145 -0.13773 -0.080881 -0.22177 -0.099601 0.043987 0.0050843 -0.075633 -0.081864 0.033504 -0.30674 0.22756 -0.10949 0.13189 -0.053308 -0.39911 0.16401 0.4878 0.042183 -0.07002 0.22563 -0.20227 0.26674 0.29506 0.087317 0.17313 -0.031012 0.15522 -0.11502 0.29333 0.097748 0.014122 -0.025368 
breach 0.11196 -0.024753 0.064983 0.37982 -0.15108 0.1605 0.099289 -0.09268 0.020047 0.2363 -0.05751 0.13041 -0.019316 -0.057598 0.27535 0.11594 0.046383 0.14254 -0.048093 0.17607 0.17219 0.050904 0.059581 -0.18027 -0.34095 -0.45363 -0.028947 0.23291 -0.074919 -0.021196 0.19289 0.33735 0.033509 -0.19989 0.18295 0.099574 -0.051675 0.013351 -0.30468 -0.13766 -0.22465 0.1408 0.20581 0.042541 0.20801 -0.16586 0.43334 -0.12357 -0.020926 -0.26188 -0.069185 0.31807 0.011003 -0.056025 0.070673 0.075074 0.00032297 -0.2567 0.21706 -0.036328 0.024071 0.015648 0.12232 0.17452 0.040362 -0.007908 -0.23032 0.35142 -0.14696 -0.088061 -0.23184 -0.10557 0.048131 0.0084131 -0.078422 -0.088217 0.039674 -0.32504 0.24157 -0.12019 0.13924 -0.050857 -0.42026 0.17725 0.51687 0.046643 -0.076079 0.23978 -0.21439 0.28741 0.3107 0.093839 0.18494 -0.036671 0.16521 -0.12224 0.31081 0.10224 0.016025 -0.024832 
credit 0.10757 -0.025157 0.06161 0.36864 -0.14751 0.15661 0.094759 -0.088014 0.018715 0.22818 -0.053634 0.12738 -0.020469 -0.057713 0.26542 0.11089 0.045111 0.13875 -0.045871 0.17377 0.16479 0.056053 0.059823 -0.17156 -0.3276 -0.43579 -0.02683 0.22974 -0.069612 -0.017696 0.18673 0.32343 0.033373 -0.1908 0.17072 0.095351 -0.050658 0.014738 -0.29137 -0.13241 -0.21894 0.13773 0.19475 0.040445 0.20014 -0.15666 0.41454 -0.11803 -0.018804 -0.25462 -0.066028 0.30464 0.0083747 -0.05211 0.069039 0.072738 0.0029117 -0.24512 0.20879 -0.03823 0.023596 0.016588 0.11849 0.17117 0.036707 -0.0038703 -0.22228 0.33884 -0.14089 -0.085717 -0.22438 -0.10269 0.046203 0.0088071 -0.076248 -0.084334 0.038602 -0.31218 0.23857 -0.11817 0.13118 -0.053794 -0.40817 0.16838 0.49852 0.044478 -0.074786 0.23131 -0.20793 0.27618 0.29957 0.089202 0.17495 -0.033563 0.16224 -0.1166 0.29995 0.098546 0.013522 -0.022908 
its 0.11312 -0.026878 0.067118 0.38175 -0.15363 0.15881 0.094088 -0.090766 0.020433 0.23188 -0.053145 0.13621 -0.021506 -0.056143 0.26898 0.12053 0.050435 0.14027 -0.047733 0.17287 0.17079 0.054461 0.060066 -0.17921 -0.33484 -0.44917 -0.027004 0.23096 -0.074483 -0.020646 0.19167 0.33286 0.035531 -0.20079 0.17965 0.098916 -0.047336 0.016089 -0.30224 -0.14479 -0.22478 0.13859 0.19992 0.042891 0.20256 -0.16677 0.43063 -0.12269 -0.019637 -0.2638 -0.070338 0.31561 0.01131 -0.054338 0.068458 0.071375 -0.00045317 -0.25123 0.21196 -0.037768 0.02399 0.017517 0.11704 0.17826 0.037564 -0.0072061 -0.22823 0.35356 -0.14309 -0.089018 -0.22997 -0.10561 0.049746 0.0090453 -0.078224 -0.084272 0.038685 -0.31965 0.24454 -0.11572 0.135 -0.04928 -0.4194 0.17419 0.50917 0.050601 -0.072652 0.24263 -0.21314 0.27997 0.30887 0.089329 0.17798 -0.03415 0.16393 -0.12042 0.31158 0.10066 0.015194 -0.018486 
company 0.11155 -0.025388 0.061137 0.37822 -0.14952 0.16091 0.096346 -0.090575 0.020299 0.23463 -0.054359 0.12912 -0.022371 -0.05493 0.2728 0.1157 0.047381 0.14064 -0.047518 0.17692 0.17069 0.054403 0.06022 -0.17702 -0.33483 -0.44911 -0.025069 0.23233 -0.070274 -0.01934 0.19274 0.33119 0.034634 -0.19348 0.18091 0.099445 -0.053682 0.014933 -0.3008 -0.13663 -0.22621 0.14197 0.20019 0.042186 0.20559 -0.16394 0.42904 -0.12385 -0.018578 -0.26037 -0.069827 0.31333 0.0095682 -0.0547 0.069326 0.074317 0.00052101 -0.25397 0.21424 -0.036515 0.024955 0.017107 0.12072 0.17411 0.042883 -0.0095044 -0.23034 0.34941 -0.1436 -0.085704 -0.23084 -0.10612 0.050701 0.0077352 -0.078714 -0.088424 0.040224 -0.32014 0.24394 -0.11976 0.1374 -0.051636 -0.41528 0.17388 0.50887 0.044794 -0.072863 0.2387 -0.21187 0.28163 0.30809 0.089857 0.1812 -0.035597 0.16272 -0.11868 0.30759 0.10172 0.015594 -0.025777 
was 0.10189 -0.023054 0.056502 0.34126 -0.13145 0.14642 0.088619 -0.081838 0.018419 0.21 -0.053765 0.11628 -0.015062 -0.052106 0.2432 0.10581 0.044064 0.12738 -0.045324 0.15985 0.14661 0.045524 0.05628 -0.15699 -0.30113 -0.40055 -0.02896 0.20701 -0.062979 -0.017332 0.17141 0.29629 0.028637 -0.17405 0.16165 0.088675 -0.047132 0.012629 -0.27207 -0.12183 -0.20051 0.12744 0.17846 0.04101 0.18316 -0.13942 0.38458 -0.11273 -0.015922 -0.23686 -0.06256 0.28024 0.0065502 -0.050367 0.058277 0.066614 0.0024091 -0.22649 0.19312 -0.037652 0.019427 0.018419 0.10722 0.15433 0.032133 -0.0075611 -0.20268 0.31458 -0.13039 -0.07793 -0.20733 -0.094155 0.042298 0.0068163 -0.069952 -0.078722 0.035904 -0.28259 0.21806 -0.10784 0.12087 -0.047363 -0.36772 0.15977 0.45365 0.042696 -0.071805 0.20883 -0.19263 0.24722 0.27595 0.077859 0.16029 -0.031713 0.14695 -0.10471 0.27428 0.093025 0.014084 -0.021324 
has 0.10581 -0.019765 0.058076 0.35486 -0.142 0.14998 0.092375 -0.082646 0.016858 0.21717 -0.052343 0.1207 -0.020108 -0.055275 0.25058 0.10811 0.039381 0.13043 -0.040506 0.16554 0.15752 0.049162 0.05898 -0.16345 -0.3129 -0.4177 -0.028698 0.21798 -0.069927 -0.018191 0.18202 0.30992 0.034087 -0.18246 0.16569 0.09434 -0.048833 0.012398 -0.28203 -0.12428 -0.20982 0.12927 0.18923 0.04336 0.19379 -0.14832 0.3992 -0.11333 -0.014776 -0.24268 -0.060888 0.28992 0.0041186 -0.046158 0.063037 0.069505 0.0043499 -0.23651 0.19845 -0.03702 0.023251 0.016513 0.10984 0.16513 0.035931 -0.0074999 -0.21268 0.32896 -0.1348 -0.081869 -0.21728 -0.096189 0.047042 0.006666 -0.071443 -0.080114 0.032825 -0.30005 0.22633 -0.10909 0.12626 -0.048474 -0.38589 0.15711 0.47508 0.040817 -0.066297 0.22613 -0.20127 0.26084 0.28865 0.087224 0.16496 -0.033408 0.15 -0.11272 0.28556 0.091161 0.015298 -0.025185 
not 0.096469 -0.019124 0.053022 0.32009 -0.12604 0.13478 0.084704 -0.077541 0.015901 0.19774 -0.048599 0.11194 -0.01673 -0.051596 0.22678 0.098867 0.042354 0.12105 -0.041194 0.14609 0.14785 0.046656 0.051958 -0.15068 -0.28368 -0.38895 -0.020913 0.19811 -0.059073 -0.016035 0.16878 0.28502 0.026036 -0.1653 0.1516 0.082476 -0.046703 0.01475 -0.26326 -0.11961 -0.19084 0.11844 0.17135 0.034731 0.17161 -0.14116 0.36974 -0.098869 -0.020596 -0.2233 -0.060652 0.26378 0.0090686 -0.049441 0.059727 0.061304 0.0030883 -0.21492 0.18142 -0.031381 0.021797 0.01363 0.10021 0.14742 0.035978 -0.0078599 -0.19658 0.30087 -0.12102 -0.069134 -0.19882 -0.09181 0.04313 0.00488 -0.06539 -0.068378 0.035351 -0.27413 0.20327 -0.1025 0.11842 -0.044285 -0.35649 0.1445 0.43449 0.036776 -0.05938 0.20033 -0.18605 0.24188 0.26527 0.07451 0.15262 -0.033275 0.13636 -0.10767 0.26338 0.085965 0.016396 -0.021996 
"The 0.095972 -0.02215 0.054682 0.32684 -0.13282 0.13682 0.084093 -0.075027 0.018613 0.20016 -0.049763 0.11579 -0.015337 -0.048821 0.23146 0.10047 0.040911 0.11916 -0.041325 0.15411 0.144 0.047433 0.052097 -0.15341 -0.28714 -0.38904 -0.019839 0.19838 -0.064115 -0.014723 0.16598 0.2857 0.030463 -0.17026 0.15109 0.086412 -0.043026 0.010335 -0.25673 -0.12296 -0.19396 0.11849 0.17241 0.035327 0.17425 -0.13918 0.37268 -0.10344 -0.015195 -0.22787 -0.056643 0.27329 0.0072075 -0.046374 0.059142 0.060847 0.0048168 -0.21661 0.18282 -0.033768 0.019622 0.01524 0.10553 0.14825 0.038011 -0.0083863 -0.1975 0.2993 -0.1279 -0.073364 -0.19627 -0.089769 0.040661 0.0048304 -0.068001 -0.073504 0.034762 -0.27397 0.20655 -0.10346 0.11549 -0.042002 -0.35593 0.15055 0.43873 0.038095 -0.066674 0.20415 -0.18275 0.24083 0.26402 0.076246 0.15713 -0.034527 0.14171 -0.10231 0.26181 0.086756 0.014654 -0.023457 
as 0.096326 -0.017707 0.051326 0.34027 -0.13498 0.14605 0.081945 -0.077177 0.01394 0.2052 -0.051356 0.11605 -0.01713 -0.05506 0.2387 0.098054 0.04368 0.12636 -0.039841 0.16264 0.14921 0.045641 0.052484 -0.15749 -0.29366 -0.39881 -0.026209 0.20654 -0.066218 -0.017887 0.1765 0.28549 0.034589 -0.17234 0.16165 0.084909 -0.040096 0.010999 -0.26508 -0.12048 -0.20079 0.12482 0.17993 0.041455 0.18283 -0.13757 0.37816 -0.10525 -0.019675 -0.23414 -0.057295 0.2799 0.003268 -0.045795 0.061431 0.06321 -0.0035003 -0.21842 0.18415 -0.035611 0.025163 0.018984 0.1119 0.15272 0.031284 -0.0031188 -0.20516 0.3078 -0.13512 -0.077154 -0.2012 -0.095522 0.045378 0.0033687 -0.066205 -0.076673 0.03616 -0.28561 0.21502 -0.10011 0.11606 -0.051481 -0.36603 0.15631 0.4524 0.044317 -0.0639 0.2107 -0.18761 0.24718 0.27099 0.07431 0.16025 -0.033935 0.15093 -0.098164 0.27798 0.088262 0.012903 -0.021027 
is 0.1084 -0.028368 0.059297 0.36504 -0.14161 0.16188 0.090423 -0.090441 0.018014 0.22907 -0.049637 0.12606 -0.015114 -0.056511 0.26164 0.10926 0.045238 0.13842 -0.045792 0.16859 0.16773 0.052107 0.061351 -0.17486 -0.31487 -0.43063 -0.025231 0.22265 -0.071897 -0.022729 0.18098 0.32306 0.031598 -0.18383 0.17176 0.093 -0.049049 0.010521 -0.28871 -0.13444 -0.21691 0.13089 0.19468 0.03411 0.19286 -0.15875 0.40763 -0.11943 -0.020411 -0.25463 -0.059994 0.30364 0.011031 -0.056076 0.065841 0.079118 0.0033217 -0.24373 0.21406 -0.038107 0.022684 0.020416 0.11989 0.17196 0.042642 -0.0091596 -0.2189 0.33678 -0.13824 -0.086131 -0.22572 -0.10178 0.050509 0.0061689 -0.080907 -0.083408 0.036812 -0.31353 0.23522 -0.11109 0.12941 -0.049863 -0.40292 0.16373 0.49245 0.046231 -0.073412 0.22977 -0.20816 0.27334 0.29975 0.094254 0.17733 -0.033173 0.15816 -0.11742 0.29785 0.095588 0.014289 -0.024764 
"Equifax 0.092644 -0.022198 0.052481 0.31523 -0.12426 0.13212 0.079839 -0.074473 0.018017 0.19419 -0.045815 0.10929 -0.017471 -0.049711 0.2267 0.095906 0.040697 0.1167 -0.038244 0.1472 0.14088 0.045446 0.047351 -0.14748 -0.27981 -0.37463 -0.0228 0.19133 -0.06179 -0.013868 0.16049 0.27748 0.027506 -0.16399 0.15057 0.083105 -0.042878 0.011565 -0.24999 -0.11207 -0.18605 0.11533 0.16755 0.033239 0.16982 -0.13545 0.35768 -0.10206 -0.016405 -0.21664 -0.057635 0.26236 0.0059967 -0.042499 0.058725 0.061374 0.00037597 -0.20874 0.1773 -0.033541 0.021469 0.013769 0.10069 0.14789 0.034419 -0.0055721 -0.19207 0.291 -0.1206 -0.069646 -0.19105 -0.086774 0.040247 0.0080977 -0.063111 -0.073961 0.029919 -0.2687 0.20189 -0.097776 0.11226 -0.046099 -0.34908 0.14604 0.42589 0.038057 -0.05973 0.1976 -0.17754 0.23457 0.25432 0.075632 0.15177 -0.027561 0.13337 -0.097799 0.25639 0.083642 0.01418 -0.022655 
with 0.10213 -0.026599 0.060242 0.35489 -0.14238 0.152 0.089408 -0.083397 0.017321 0.21984 -0.05031 0.12477 -0.018791 -0.056083 0.25121 0.10745 0.043416 0.12929 -0.041468 0.16153 0.15533 0.048931 0.052416 -0.16367 -0.31016 -0.41756 -0.025657 0.21732 -0.066989 -0.016671 0.17799 0.3086 0.031941 -0.18244 0.1624 0.092491 -0.047471 0.013682 -0.28025 -0.12868 -0.20794 0.13436 0.18446 0.041211 0.1869 -0.1508 0.40217 -0.11282 -0.01263 -0.24382 -0.065241 0.29268 0.0055697 -0.052031 0.06495 0.07003 0.0043958 -0.2317 0.19763 -0.035103 0.021134 0.018436 0.11501 0.16537 0.039834 -0.0079747 -0.21672 0.3269 -0.13415 -0.079638 -0.21537 -0.097969 0.043932 0.0063755 -0.073761 -0.080232 0.036611 -0.30363 0.22513 -0.10977 0.12745 -0.048331 -0.39167 0.16564 0.47434 0.040183 -0.066166 0.22105 -0.1987 0.26224 0.28552 0.080528 0.17303 -0.032375 0.15373 -0.11231 0.28759 0.090012 0.011637 -0.024261 
information 0.10461 -0.02647 0.060464 0.36343 -0.14141 0.15328 0.093414 -0.084554 0.01981 0.22613 -0.053595 0.12627 -0.020427 -0.056248 0.25851 0.11086 0.04457 0.13599 -0.044598 0.1703 0.1619 0.05193 0.056867 -0.16882 -0.3214 -0.43009 -0.026388 0.22094 -0.068946 -0.020945 0.18597 0.31803 0.031269 -0.18646 0.17457 0.092231 -0.04951 0.011435 -0.28618 -0.13185 -0.21552 0.13531 0.19368 0.041054 0.19494 -0.15613 0.41129 -0.11529 -0.017854 -0.25033 -0.065438 0.29756 0.009016 -0.0512 0.067054 0.071914 0.0019475 -0.23983 0.20446 -0.036528 0.023206 0.016765 0.11588 0.16839 0.038139 -0.0058685 -0.21995 0.33611 -0.1378 -0.081544 -0.22209 -0.1001 0.046597 0.0069157 -0.076767 -0.084035 0.038079 -0.30844 0.23271 -0.11367 0.13186 -0.05011 -0.39829 0.1665 0.48675 0.040728 -0.072685 0.22711 -0.20527 0.27002 0.29403 0.086989 0.1734 -0.033663 0.15603 -0.11341 0.29316 0.096477 0.015939 -0.024992 
were 0.098888 -0.023716 0.057673 0.3465 -0.13735 0.14707 0.086797 -0.081399 0.018944 0.21588 -0.049222 0.12187 -0.018475 -0.051926 0.25028 0.10584 0.044134 0.12475 -0.042879 0.16364 0.15426 0.053447 0.051815 -0.16628 -0.30573 -0.4086 -0.026302 0.20988 -0.069186 -0.021008 0.17788 0.30709 0.032171 -0.18249 0.16376 0.088417 -0.046635 0.010629 -0.27879 -0.12899 -0.20506 0.12627 0.18484 0.037692 0.18563 -0.14788 0.39371 -0.11245 -0.015948 -0.23937 -0.06338 0.28525 0.0085897 -0.051376 0.063951 0.069614 0.0023833 -0.23047 0.1951 -0.03341 0.022644 0.013502 0.10649 0.15869 0.03895 -0.0072537 -0.21324 0.32348 -0.1317 -0.077412 -0.20926 -0.093248 0.0448 0.0099753 -0.073277 -0.081706 0.035209 -0.29122 0.21861 -0.10669 0.12295 -0.047634 -0.38205 0.15948 0.46675 0.040659 -0.066519 0.21716 -0.19716 0.2572 0.28027 0.081854 0.16732 -0.032263 0.14876 -0.11268 0.28266 0.092183 0.015455 -0.028118 
million 0.11033 -0.026686 0.064062 0.38748 -0.1533 0.16501 0.098168 -0.091227 0.021048 0.24282 -0.056457 0.13301 -0.023679 -0.059941 0.27777 0.11933 0.049574 0.14229 -0.047762 0.18442 0.17105 0.054799 0.059348 -0.1815 -0.34598 -0.46254 -0.026473 0.23904 -0.075861 -0.018452 0.20272 0.34303 0.033049 -0.20543 0.18782 0.10075 -0.054005 0.012972 -0.30885 -0.14071 -0.23195 0.14347 0.20766 0.046128 0.21055 -0.16452 0.44284 -0.12747 -0.01637 -0.26868 -0.072534 0.32053 0.010151 -0.055352 0.071584 0.079534 -0.0010797 -0.25891 0.2193 -0.040115 0.026263 0.018889 0.12521 0.17954 0.042053 -0.0027988 -0.23641 0.35989 -0.14797 -0.086765 -0.23561 -0.11024 0.05128 0.01039 -0.079165 -0.090968 0.041961 -0.33056 0.24889 -0.12441 0.14229 -0.054012 -0.42949 0.17751 0.52296 0.045376 -0.07613 0.24869 -0.21813 0.29188 0.31291 0.090769 0.18624 -0.03937 0.16798 -0.12362 0.31773 0.10254 0.014789 -0.02738 
have 0.096824 -0.023902 0.058947 0.33392 -0.1352 0.14239 0.086973 -0.079372 0.016401 0.2112 -0.053143 0.11549 -0.018517 -0.053902 0.24091 0.10258 0.042685 0.12346 -0.043628 0.15697 0.14661 0.047618 0.053992 -0.16062 -0.29602 -0.39783 -0.027846 0.20654 -0.062951 -0.015355 0.16853 0.29475 0.030357 -0.17452 0.16194 0.08837 -0.045845 0.01402 -0.26583 -0.12317 -0.20129 0.12192 0.18164 0.037654 0.18173 -0.14454 0.37931 -0.10837 -0.015807 -0.22964 -0.062763 0.27646 0.0071429 -0.048673 0.061145 0.064798 0.0022889 -0.22323 0.18838 -0.034166 0.024226 0.015609 0.10602 0.15381 0.036756 -0.0044403 -0.20645 0.3129 -0.12697 -0.074881 -0.20563 -0.095359 0.040183 0.0051188 -0.068092 -0.080815 0.038043 -0.28832 0.21516 -0.10652 0.11935 -0.048648 -0.36601 0.15717 0.45235 0.038688 -0.067073 0.21381 -0.18969 0.25059 0.27095 0.081844 0.16097 -0.030414 0.14516 -0.10503 0.26845 0.087891 0.013946 -0.025582 
security 0.10438 -0.023946 0.057403 0.35371 -0.13973 0.15236 0.091484 -0.084949 0.01969 0.218 -0.051207 0.12308 -0.017713 -0.053141 0.25233 0.10583 0.041702 0.13153 -0.043641 0.16558 0.15616 0.045991 0.053593 -0.16639 -0.31176 -0.41874 -0.02503 0.21763 -0.067438 -0.019084 0.17908 0.3098 0.031192 -0.18371 0.16916 0.093249 -0.047649 0.012234 -0.28201 -0.12851 -0.20985 0.13131 0.18884 0.038075 0.19241 -0.15153 0.39931 -0.11367 -0.018362 -0.24349 -0.063477 0.293 0.010487 -0.051438 0.066355 0.072518 -0.00020811 -0.23419 0.20236 -0.035372 0.023773 0.01855 0.11645 0.16239 0.036447 -0.0050723 -0.21655 0.32667 -0.13609 -0.079647 -0.21671 -0.09827 0.046759 0.0072714 -0.076107 -0.079185 0.038185 -0.30145 0.22642 -0.1107 0.12648 -0.048728 -0.38969 0.1643 0.47717 0.042427 -0.071732 0.22234 -0.199 0.2655 0.28808 0.085321 0.16939 -0.034273 0.15237 -0.11289 0.28644 0.095473 0.012823 -0.024438 
U.S. 0.096326 -0.02373 0.051969 0.32445 -0.12725 0.1391 0.081127 -0.081127 0.0146 0.19886 -0.047653 0.11394 -0.01842 -0.051715 0.23117 0.096948 0.040063 0.12268 -0.039603 0.15021 0.14441 0.044991 0.050567 -0.15416 -0.28658 -0.38055 -0.022287 0.19966 -0.061464 -0.015517 0.16566 0.28897 0.028253 -0.16529 0.15355 0.089674 -0.042629 0.010888 -0.25667 -0.11606 -0.19177 0.1199 0.17422 0.037156 0.17186 -0.13894 0.37061 -0.10491 -0.015247 -0.22612 -0.060485 0.26934 0.0071666 -0.044784 0.060878 0.062522 0.00077184 -0.21558 0.185 -0.032145 0.020454 0.012928 0.10878 0.15134 0.034882 -0.0033273 -0.19762 0.29966 -0.12346 -0.075527 -0.19521 -0.088685 0.042625 0.0067883 -0.068958 -0.075545 0.036247 -0.27662 0.21276 -0.10374 0.11812 -0.047337 -0.35555 0.15039 0.43714 0.040752 -0.061647 0.2056 -0.18487 0.24335 0.26147 0.078076 0.15646 -0.032689 0.14087 -0.10636 0.26307 0.087546 0.013899 -0.025492 
at 0.11307 -0.023291 0.060866 0.37144 -0.14488 0.15973 0.098825 -0.088029 0.013554 0.22744 -0.048554 0.12676 -0.017688 -0.056335 0.26731 0.11309 0.044965 0.13431 -0.046479 0.16501 0.16221 0.047008 0.059231 -0.17402 -0.32574 -0.43373 -0.024966 0.2222 -0.071876 -0.020073 0.18883 0.32121 0.024718 -0.18969 0.17432 0.092932 -0.05046 0.021539 -0.28822 -0.13104 -0.2185 0.1345 0.20066 0.037498 0.19849 -0.16077 0.41508 -0.11904 -0.021055 -0.25008 -0.065412 0.30212 0.0069546 -0.057459 0.064179 0.072447 -0.00010632 -0.24794 0.20414 -0.033552 0.024179 0.021867 0.11723 0.17056 0.035446 -0.0093631 -0.22113 0.34328 -0.1404 -0.08581 -0.22648 -0.1091 0.045591 0.012373 -0.077528 -0.087633 0.037183 -0.3158 0.23654 -0.11811 0.13163 -0.054243 -0.4015 0.16726 0.48785 0.043791 -0.072758 0.23528 -0.20155 0.27294 0.29212 0.092627 0.18166 -0.039145 0.16257 -0.11559 0.29676 0.09975 0.010522 -0.027544 
more 0.093992 -0.023005 0.052515 0.3186 -0.12332 0.13914 0.07923 -0.075422 0.019577 0.19651 -0.046114 0.11309 -0.014538 -0.046681 0.23048 0.099889 0.039833 0.11804 -0.04365 0.15025 0.14242 0.044781 0.049497 -0.15219 -0.28281 -0.37616 -0.021646 0.19674 -0.058489 -0.015688 0.16034 0.28112 0.02525 -0.16357 0.1471 0.083128 -0.044003 0.013059 -0.25829 -0.11257 -0.18697 0.12021 0.17407 0.03509 0.17299 -0.13704 0.36229 -0.10681 -0.012762 -0.22047 -0.059508 0.26526 0.0076488 -0.04935 0.059363 0.06399 0.002371 -0.21097 0.1853 -0.03332 0.018474 0.01446 0.10329 0.14986 0.035002 -0.006907 -0.19699 0.29492 -0.12354 -0.071142 -0.19359 -0.088872 0.040743 0.0063219 -0.067143 -0.072367 0.033907 -0.27195 0.20277 -0.099874 0.11687 -0.045702 -0.35843 0.14759 0.43238 0.036902 -0.065612 0.20115 -0.18055 0.23898 0.25697 0.07225 0.15605 -0.030297 0.13822 -0.104 0.25926 0.084345 0.013119 -0.023327 
their 0.082881 -0.022251 0.044975 0.27749 -0.10951 0.12146 0.072434 -0.065384 0.015341 0.1722 -0.039378 0.096224 -0.014907 -0.04213 0.20012 0.082083 0.032457 0.10267 -0.035123 0.13216 0.12426 0.037708 0.042397 -0.12859 -0.24676 -0.33246 -0.020753 0.17382 -0.052048 -0.012721 0.14173 0.24452 0.026481 -0.14308 0.13039 0.074869 -0.038767 0.0057376 -0.22086 -0.10201 -0.16443 0.10295 0.14579 0.030332 0.15021 -0.12336 0.31721 -0.093316 -0.013641 -0.19091 -0.052198 0.23159 0.0054508 -0.038015 0.049987 0.058763 0.0022996 -0.18204 0.15913 -0.027636 0.01586 0.014918 0.091013 0.12883 0.028458 -0.0072851 -0.1699 0.25859 -0.10675 -0.063782 -0.17016 -0.078473 0.036701 0.0055279 -0.056264 -0.063572 0.031352 -0.23794 0.17952 -0.087474 0.10216 -0.040431 -0.30692 0.13034 0.37822 0.033196 -0.052576 0.17721 -0.15663 0.21002 0.22746 0.06691 0.13562 -0.025163 0.12067 -0.091322 0.22535 0.074697 0.012081 -0.023274 
had 0.090845 -0.023418 0.058642 0.31837 -0.12718 0.1375 0.080839 -0.073032 0.019906 0.20143 -0.049742 0.11414 -0.018819 -0.046129 0.22742 0.094845 0.041539 0.11659 -0.039032 0.14895 0.13972 0.040919 0.052903 -0.14749 -0.27953 -0.38106 -0.023987 0.19627 -0.062952 -0.01406 0.16147 0.28171 0.029788 -0.16266 0.1526 0.081519 -0.044742 0.013038 -0.25373 -0.11826 -0.18903 0.11319 0.1683 0.037175 0.16918 -0.13518 0.36165 -0.10307 -0.013332 -0.22016 -0.056879 0.26549 0.0090774 -0.045236 0.058937 0.06414 0.0013388 -0.21243 0.17618 -0.033764 0.020833 0.013105 0.1054 0.14806 0.03574 -0.0080457 -0.19539 0.29272 -0.12144 -0.073376 -0.1898 -0.088583 0.039225 0.0080026 -0.066211 -0.07187 0.030882 -0.27054 0.20171 -0.096698 0.11684 -0.044043 -0.34754 0.14285 0.42837 0.039475 -0.059099 0.1976 -0.17775 0.23792 0.25365 0.076743 0.15244 -0.025871 0.13641 -0.10269 0.26153 0.080541 0.014687 -0.024381 
from 0.10052 -0.023084 0.056682 0.33776 -0.1339 0.14655 0.088411 -0.079903 0.015859 0.2094 -0.050937 0.12047 -0.015559 -0.051829 0.24108 0.10374 0.043298 0.12235 -0.043911 0.15857 0.15209 0.050015 0.051406 -0.16002 -0.29891 -0.40403 -0.025651 0.21177 -0.066109 -0.021171 0.17212 0.29709 0.028567 -0.17374 0.16158 0.085439 -0.042371 0.0094079 -0.26975 -0.12045 -0.20199 0.12679 0.18169 0.038485 0.18436 -0.14502 0.38252 -0.11305 -0.01468 -0.23416 -0.060345 0.27974 0.0058674 -0.046761 0.063433 0.069457 0.0020529 -0.2243 0.18938 -0.032409 0.019445 0.020876 0.1091 0.15851 0.035537 -0.0070543 -0.20845 0.31325 -0.12544 -0.07542 -0.20745 -0.093672 0.043019 0.010263 -0.070121 -0.076164 0.035593 -0.28791 0.22026 -0.10912 0.12026 -0.048916 -0.37649 0.15508 0.456 0.039792 -0.067698 0.21307 -0.18928 0.25327 0.27624 0.082789 0.16709 -0.033228 0.14475 -0.10576 0.27497 0.090444 0.013795 -0.02448 
consumers 0.10408 -0.024412 0.061011 0.36238 -0.14505 0.15409 0.093118 -0.086995 0.016168 0.22246 -0.052815 0.12596 -0.01992 -0.056523 0.25993 0.11078 0.044849 0.13496 -0.04304 0.17072 0.1607 0.050306 0.059055 -0.17075 -0.3204 -0.43257 -0.025391 0.22279 -0.068835 -0.019584 0.18284 0.31903 0.031192 -0.18668 0.17208 0.095059 -0.047756 0.01303 -0.28949 -0.13358 -0.21765 0.13566 0.19444 0.038634 0.19773 -0.15613 0.41093 -0.11553 -0.018839 -0.25031 -0.064079 0.30082 0.010339 -0.053196 0.066059 0.070066 0.0029929 -0.24303 0.20555 -0.038199 0.023376 0.016702 0.11931 0.16606 0.038237 -0.0079912 -0.22123 0.33647 -0.13914 -0.083646 -0.22073 -0.10212 0.047667 0.0072372 -0.075439 -0.083566 0.038026 -0.3075 0.23559 -0.11413 0.13217 -0.050979 -0.39952 0.16527 0.49052 0.042683 -0.070783 0.22829 -0.20711 0.2705 0.29547 0.088674 0.17472 -0.033553 0.15811 -0.11509 0.29543 0.098132 0.01462 -0.025994 
- 0.088165 -0.020883 0.051603 0.29004 -0.11532 0.12463 0.069581 -0.07457 0.017049 0.1862 -0.03674 0.10042 -0.021248 -0.045943 0.21105 0.080129 0.030202 0.10707 -0.036891 0.13663 0.13745 0.035602 0.051647 -0.14561 -0.26162 -0.34818 -0.013244 0.18851 -0.054745 -0.012383 0.14486 0.26101 0.023786 -0.14453 0.14102 0.080781 -0.034642 0.009377 -0.23374 -0.11123 -0.17562 0.10922 0.15163 0.031667 0.16586 -0.12931 0.33419 -0.096227 -0.018815 -0.20008 -0.050942 0.24544 0.00016106 -0.040608 0.053109 0.059528 0.0082002 -0.2 0.1692 -0.026716 0.017527 0.021477 0.096906 0.13479 0.033299 -0.014817 -0.18179 0.27375 -0.11124 -0.074263 -0.17456 -0.07902 0.037255 0.0013447 -0.060956 -0.071397 0.029463 -0.24048 0.1878 -0.092148 0.10735 -0.03492 -0.32148 0.12899 0.3984 0.036136 -0.055842 0.18684 -0.16321 0.22163 0.23117 0.070165 0.1431 -0.024735 0.12712 -0.095541 0.2342 0.08165 0.021078 -0.015027 
monitoring 0.11675 -0.028546 0.06591 0.40105 -0.16095 0.16865 0.10062 -0.092476 0.020033 0.24876 -0.059794 0.14108 -0.022435 -0.062033 0.28762 0.12366 0.051742 0.14938 -0.049667 0.18771 0.18008 0.056298 0.063944 -0.18856 -0.3544 -0.47405 -0.030314 0.2443 -0.07438 -0.020696 0.20334 0.35061 0.035704 -0.20853 0.1893 0.10366 -0.054926 0.012314 -0.31718 -0.14591 -0.23844 0.14693 0.2129 0.045886 0.2142 -0.17296 0.45282 -0.13046 -0.019845 -0.27472 -0.073128 0.32933 0.011057 -0.055297 0.074918 0.077641 0.0029465 -0.26402 0.22545 -0.039577 0.02594 0.017552 0.12731 0.1809 0.042062 -0.0076433 -0.2414 0.37008 -0.15208 -0.090973 -0.24538 -0.11299 0.052878 0.0071449 -0.082746 -0.09083 0.041719 -0.34096 0.25655 -0.12662 0.1418 -0.055305 -0.44089 0.18442 0.49666 0.044676 -0.074076 0.23181 -0.224 0.29793 0.32618 0.096763 0.19254 -0.038455 0.17513 -0.12846 0.32477 0.10594 0.016733 -0.028401 
be 0.10664 -0.023722 0.061724 0.35962 -0.13686 0.15258 0.093999 -0.085491 0.01234 0.22385 -0.056231 0.12721 -0.017877 -0.060738 0.2609 0.10782 0.044547 0.13426 -0.044285 0.16655 0.1606 0.055501 0.0575 -0.16471 -0.32423 -0.42711 -0.022964 0.22206 -0.062471 -0.017543 0.18809 0.31832 0.030495 -0.18782 0.16777 0.092841 -0.046452 0.014457 -0.28666 -0.1332 -0.21598 0.13257 0.18857 0.034426 0.20001 -0.15532 0.4046 -0.11427 -0.014349 -0.2464 -0.0714 0.29414 0.0032285 -0.054256 0.065774 0.069056 0.0013567 -0.23802 0.20032 -0.03208 0.020497 0.01448 0.11899 0.16275 0.040832 -0.0013556 -0.22193 0.33467 -0.13814 -0.082094 -0.21916 -0.10032 0.043717 0.01183 -0.074378 -0.076838 0.036339 -0.30463 0.23298 -0.11119 0.13373 -0.0499 -0.40128 0.16632 0.48564 0.037149 -0.072357 0.22735 -0.2047 0.27232 0.29072 0.083827 0.17272 -0.038397 0.159 -0.11478 0.28641 0.087421 0.0091258 -0.02146 
an 0.13659 -0.031243 0.082525 0.47667 -0.19188 0.20516 0.12472 -0.11029 0.027518 0.29398 -0.067029 0.165 -0.024073 -0.071618 0.33268 0.14422 0.060532 0.17446 -0.060955 0.21974 0.21199 0.066374 0.072643 -0.22818 -0.41953 -0.56328 -0.032919 0.29537 -0.095625 -0.028226 0.24646 0.41569 0.043906 -0.24684 0.22579 0.12049 -0.061578 0.014761 -0.37496 -0.17871 -0.28409 0.16964 0.24896 0.050132 0.25149 -0.20721 0.54011 -0.15461 -0.023928 -0.32341 -0.088687 0.39245 0.011024 -0.06675 0.084228 0.094842 -0.005029 -0.31719 0.26994 -0.053196 0.02897 0.020113 0.15521 0.22251 0.050796 -0.013301 -0.29047 0.43563 -0.17969 -0.11071 -0.28106 -0.13126 0.061923 0.0092574 -0.096361 -0.10774 0.051992 -0.39945 0.30542 -0.14651 0.1742 -0.063637 -0.52539 0.21268 0.63728 0.058182 -0.094729 0.29938 -0.27042 0.35514 0.38572 0.11326 0.22771 -0.051006 0.21005 -0.15145 0.3841 0.12673 0.023167 -0.029222 
than 0.10838 -0.029133 0.060875 0.36867 -0.14734 0.1553 0.093317 -0.091067 0.019495 0.22781 -0.054766 0.1288 -0.018634 -0.059386 0.26554 0.11072 0.041901 0.1382 -0.045854 0.17277 0.16641 0.055269 0.058368 -0.17462 -0.32341 -0.43714 -0.026911 0.22852 -0.071645 -0.018029 0.1854 0.32222 0.028752 -0.18946 0.17453 0.099164 -0.051621 0.010507 -0.29625 -0.13511 -0.21937 0.13549 0.19648 0.039668 0.19688 -0.15937 0.42002 -0.11956 -0.017084 -0.25399 -0.064893 0.30751 0.010693 -0.05205 0.065068 0.073798 0.0011714 -0.24164 0.20938 -0.035221 0.024043 0.018746 0.11595 0.17472 0.041441 -0.0051136 -0.22495 0.33951 -0.14161 -0.084943 -0.22583 -0.10239 0.048442 0.0093934 -0.076445 -0.089917 0.037706 -0.30979 0.24065 -0.11586 0.13274 -0.055952 -0.40733 0.16961 0.5001 0.04489 -0.073972 0.23118 -0.20423 0.27392 0.30189 0.089922 0.17653 -0.035009 0.16232 -0.11932 0.29945 0.096944 0.018118 -0.026407 
said." 0.092755 -0.022474 0.0542 0.31611 -0.12506 0.13714 0.081512 -0.075179 0.016288 0.20017 -0.047203 0.10765 -0.018762 -0.04977 0.22773 0.095697 0.039374 0.11808 -0.039514 0.14894 0.14245 0.045517 0.051521 -0.14939 -0.2828 -0.37623 -0.019169 0.19496 -0.05984 -0.015553 0.16544 0.28025 0.027478 -0.16624 0.1525 0.083455 -0.044951 0.010701 -0.25734 -0.11507 -0.18948 0.11876 0.16803 0.033199 0.17046 -0.13763 0.36087 -0.10397 -0.014458 -0.21881 -0.057919 0.26299 0.0078169 -0.043368 0.058899 0.062383 0.0024093 -0.212 0.17899 -0.034978 0.022878 0.017614 0.10105 0.14619 0.033688 -0.0030425 -0.19302 0.2944 -0.12006 -0.071173 -0.196 -0.089292 0.039939 0.0058619 -0.067927 -0.074628 0.032453 -0.2701 0.20292 -0.10041 0.11489 -0.04365 -0.35063 0.14788 0.43011 0.037808 -0.06456 0.19997 -0.1781 0.23694 0.25818 0.075879 0.15185 -0.029468 0.13741 -0.10257 0.26001 0.085549 0.012895 -0.022033 
Equifax's 0.10208 -0.025156 0.059001 0.35234 -0.14025 0.1473 0.089204 -0.082621 0.019322 0.2171 -0.050187 0.12135 -0.019329 -0.054977 0.25114 0.10681 0.044601 0.13123 -0.043317 0.1634 0.15573 0.050425 0.054358 -0.16492 -0.3128 -0.41679 -0.025009 0.2136 -0.066965 -0.016235 0.17897 0.30872 0.029364 -0.18137 0.16851 0.093292 -0.04652 0.013032 -0.27793 -0.12598 -0.20754 0.12933 0.1854 0.03772 0.18963 -0.15025 0.39791 -0.11318 -0.015768 -0.24368 -0.064566 0.29324 0.0085061 -0.04725 0.065178 0.068306 0.00083438 -0.23269 0.19815 -0.037023 0.025344 0.015599 0.11113 0.16423 0.038851 -0.0066267 -0.21508 0.32469 -0.1338 -0.079887 -0.21342 -0.096458 0.044541 0.0081669 -0.071664 -0.083759 0.03303 -0.29902 0.22453 -0.11017 0.12623 -0.049952 -0.38813 0.16459 0.47634 0.041558 -0.069039 0.22071 -0.19881 0.26233 0.28528 0.084837 0.17038 -0.031879 0.152 -0.10885 0.2862 0.093389 0.014294 -0.025146 
shares 0.11862 -0.026618 0.069502 0.40817 -0.16338 0.17182 0.10593 -0.099446 0.021637 0.2502 -0.062382 0.14 -0.023355 -0.061031 0.28985 0.1235 0.050456 0.15185 -0.049907 0.19255 0.18487 0.057453 0.061738 -0.19439 -0.35953 -0.48557 -0.02893 0.24814 -0.079622 -0.019858 0.20836 0.35993 0.036386 -0.21009 0.19416 0.10721 -0.054589 0.01197 -0.32253 -0.14877 -0.24242 0.15211 0.21651 0.045154 0.22029 -0.17408 0.46356 -0.13001 -0.019609 -0.27957 -0.071902 0.33727 0.0093162 -0.057977 0.077315 0.082406 0.0020198 -0.27149 0.2283 -0.043056 0.025922 0.018469 0.13166 0.18991 0.043579 -0.0077594 -0.24864 0.37723 -0.15314 -0.091902 -0.24809 -0.11036 0.052331 0.0087772 -0.084025 -0.092975 0.042112 -0.34821 0.26013 -0.12685 0.14399 -0.056093 -0.45061 0.18725 0.54831 0.0485 -0.081544 0.25572 -0.23005 0.30682 0.33354 0.097545 0.19472 -0.037369 0.1748 -0.13053 0.32963 0.10942 0.01883 -0.028118 
one 0.077341 -0.018525 0.043105 0.26916 -0.1082 0.11724 0.065472 -0.06719 0.015898 0.17215 -0.039344 0.096671 -0.013249 -0.040773 0.19167 0.08007 0.033174 0.10428 -0.032441 0.12313 0.12058 0.037393 0.043674 -0.13184 -0.24456 -0.31822 -0.022835 0.16493 -0.049374 -0.011001 0.13549 0.23998 0.022522 -0.14052 0.1312 0.068907 -0.034179 0.0084207 -0.21768 -0.10068 -0.16571 0.10081 0.14632 0.030374 0.14616 -0.11866 0.3051 -0.085975 -0.011948 -0.18985 -0.049829 0.225 0.0047071 -0.042677 0.045939 0.050778 0.0050873 -0.17833 0.15876 -0.027177 0.015604 0.011589 0.082614 0.12327 0.032192 -0.0017295 -0.16307 0.24816 -0.099392 -0.062977 -0.16505 -0.077978 0.032934 0.0052432 -0.052865 -0.061525 0.027909 -0.23138 0.17071 -0.084026 0.098577 -0.037074 -0.29862 0.12727 0.36572 0.033297 -0.051277 0.16803 -0.15296 0.20291 0.21823 0.066614 0.12985 -0.024367 0.12306 -0.087069 0.22191 0.071818 0.012386 -0.01662 
after 0.094233 -0.020984 0.053158 0.32527 -0.12832 0.13706 0.083942 -0.078516 0.015645 0.20574 -0.047514 0.11329 -0.017164 -0.051121 0.23326 0.09834 0.040809 0.12052 -0.039006 0.14787 0.14442 0.046375 0.051139 -0.15693 -0.28871 -0.39058 -0.023567 0.19857 -0.062068 -0.014988 0.1663 0.28529 0.030285 -0.17121 0.15473 0.086629 -0.044751 0.0092716 -0.25908 -0.11718 -0.19532 0.12448 0.17474 0.034112 0.17617 -0.13967 0.36947 -0.10804 -0.013085 -0.22775 -0.058402 0.27016 0.01212 -0.046285 0.060911 0.065968 0.0019968 -0.21892 0.18408 -0.034523 0.018334 0.016707 0.10526 0.14969 0.036196 -0.007644 -0.20008 0.30573 -0.12101 -0.073129 -0.20245 -0.09159 0.04172 0.0061076 -0.070004 -0.074735 0.033822 -0.2764 0.20957 -0.10351 0.11711 -0.041504 -0.36275 0.1485 0.43996 0.039528 -0.06528 0.20748 -0.18117 0.24435 0.26915 0.077141 0.15489 -0.027676 0.13924 -0.10254 0.26384 0.086506 0.012716 -0.021167 
are 0.11687 -0.02631 0.063919 0.38917 -0.15354 0.16628 0.098935 -0.092169 0.026263 0.24301 -0.057533 0.14034 -0.021061 -0.061054 0.27688 0.12138 0.047328 0.14644 -0.053225 0.18032 0.17868 0.055255 0.062914 -0.18512 -0.34866 -0.46601 -0.029187 0.24166 -0.071983 -0.022112 0.19995 0.34425 0.034219 -0.20367 0.18781 0.099276 -0.049828 0.014854 -0.31412 -0.14463 -0.22849 0.14877 0.20806 0.043158 0.21243 -0.17095 0.44435 -0.12541 -0.015526 -0.2718 -0.068801 0.32223 0.0093874 -0.0547 0.076909 0.076923 0.001817 -0.25842 0.22313 -0.046414 0.023443 0.018361 0.12619 0.18382 0.041843 -0.0080079 -0.23944 0.35826 -0.14976 -0.087389 -0.23739 -0.10933 0.04647 0.0081431 -0.083283 -0.090316 0.035984 -0.33347 0.24704 -0.12299 0.14334 -0.052139 -0.43253 0.17968 0.52538 0.044098 -0.078087 0.24495 -0.22285 0.29568 0.3189 0.093401 0.18819 -0.036333 0.171 -0.12392 0.31813 0.10266 0.015632 -0.034175 
which 0.10491 -0.021988 0.056693 0.34891 -0.13402 0.14892 0.090776 -0.082953 0.016557 0.21541 -0.051415 0.12014 -0.018219 -0.052722 0.24772 0.10409 0.043254 0.12815 -0.043904 0.16161 0.1542 0.049022 0.054664 -0.16265 -0.30845 -0.41589 -0.026485 0.2112 -0.062861 -0.018137 0.18032 0.30467 0.030632 -0.1831 0.16569 0.091771 -0.048772 0.011327 -0.27454 -0.12728 -0.20536 0.12618 0.18738 0.039209 0.189 -0.14916 0.39242 -0.11399 -0.016417 -0.24067 -0.064363 0.28924 0.0084619 -0.05064 0.062331 0.069605 6.6089e-05 -0.23343 0.19817 -0.034151 0.023391 0.019198 0.11054 0.15939 0.036895 -0.0040137 -0.21512 0.32422 -0.13459 -0.08313 -0.21024 -0.09615 0.043943 0.01043 -0.071063 -0.078929 0.036076 -0.29333 0.22137 -0.1117 0.12428 -0.046373 -0.38606 0.16213 0.46779 0.044449 -0.072123 0.21924 -0.19563 0.26152 0.28425 0.083358 0.1647 -0.032058 0.14741 -0.1125 0.28306 0.08997 0.015094 -0.022853 
reporting 0.11171 -0.026527 0.062284 0.38438 -0.15497 0.16164 0.10107 -0.090779 0.018933 0.23895 -0.057832 0.13627 -0.017628 -0.057546 0.27914 0.11468 0.046883 0.14657 -0.047107 0.18102 0.17179 0.056455 0.060116 -0.18165 -0.34137 -0.45696 -0.029828 0.23723 -0.074133 -0.020459 0.1996 0.33966 0.033953 -0.19973 0.18222 0.10044 -0.05156 0.010504 -0.30898 -0.14058 -0.22861 0.13927 0.20488 0.044069 0.20671 -0.1663 0.43901 -0.12341 -0.017221 -0.26447 -0.069627 0.31966 0.0087676 -0.053128 0.073485 0.074326 -0.0010536 -0.2569 0.22225 -0.04303 0.022212 0.01932 0.12274 0.17551 0.042491 -0.0098767 -0.23452 0.3574 -0.14713 -0.088629 -0.23597 -0.10872 0.052059 0.00932 -0.080862 -0.087331 0.039771 -0.32905 0.24757 -0.11881 0.13591 -0.054801 -0.42778 0.17889 0.47321 0.042792 -0.071627 0.2239 -0.21877 0.28731 0.31347 0.092775 0.18587 -0.034465 0.16812 -0.12309 0.31256 0.1038 0.016309 -0.026797 
143 0.094054 -0.020807 0.045743 0.32878 -0.13248 0.14185 0.085068 -0.076193 0.017655 0.2061 -0.050935 0.11551 -0.012339 -0.051065 0.24275 0.096301 0.043203 0.11985 -0.043091 0.15556 0.14325 0.044074 0.052511 -0.15848 -0.29415 -0.39288 -0.022904 0.2027 -0.060839 -0.016193 0.16866 0.29005 0.030311 -0.17564 0.15794 0.084434 -0.044621 0.0098128 -0.26927 -0.11908 -0.20009 0.12072 0.18002 0.03907 0.17778 -0.14213 0.37357 -0.10165 -0.015308 -0.22818 -0.062096 0.27472 0.0077239 -0.041865 0.061637 0.062998 0.0015095 -0.21997 0.18422 -0.033629 0.02296 0.013354 0.10754 0.15086 0.03535 -0.0011394 -0.20307 0.311 -0.12795 -0.079014 -0.20091 -0.08954 0.043859 0.0057265 -0.072758 -0.074803 0.038232 -0.2834 0.21757 -0.10482 0.11712 -0.050146 -0.36707 0.14967 0.4485 0.0403 -0.06943 0.21077 -0.18766 0.24879 0.26828 0.074527 0.15877 -0.029682 0.14612 -0.10744 0.26675 0.088505 0.010701 -0.027822 
or 0.10144 -0.026176 0.052436 0.32866 -0.13512 0.14296 0.082679 -0.081377 0.017975 0.2037 -0.041285 0.11512 -0.020356 -0.05009 0.24064 0.10091 0.041289 0.12388 -0.042937 0.15483 0.1532 0.043278 0.052761 -0.15926 -0.29424 -0.39163 -0.024338 0.20785 -0.063892 -0.01702 0.17201 0.29543 0.030115 -0.17533 0.15627 0.082544 -0.04159 0.0091021 -0.26097 -0.12237 -0.20169 0.12113 0.1751 0.039625 0.1796 -0.14019 0.37684 -0.10689 -0.016166 -0.2341 -0.062414 0.2708 0.0123 -0.046859 0.061353 0.062083 0.0033407 -0.22033 0.18301 -0.035111 0.018304 0.01693 0.10427 0.14801 0.037629 -0.004452 -0.2064 0.30942 -0.12459 -0.077158 -0.20581 -0.088361 0.044295 0.0023987 -0.062759 -0.074678 0.030829 -0.27909 0.20925 -0.10543 0.11832 -0.04704 -0.3678 0.1562 0.44616 0.040405 -0.067005 0.20499 -0.18217 0.24658 0.27321 0.076821 0.15896 -0.028912 0.14925 -0.10694 0.26973 0.087167 0.010914 -0.025403 
" 0.068611 -0.019877 0.04194 0.24946 -0.097679 0.10971 0.053147 -0.057592 0.0080879 0.15593 -0.03223 0.088234 -0.0085237 -0.045737 0.17151 0.074834 0.034321 0.090248 -0.033429 0.10813 0.1083 0.037832 0.036259 -0.11883 -0.20988 -0.29848 -0.011742 0.15355 -0.040801 -0.0099986 0.12125 0.22067 0.029429 -0.12788 0.11881 0.064865 -0.03036 0.014449 -0.19542 -0.080926 -0.14796 0.099609 0.13973 0.027586 0.13868 -0.1038 0.28153 -0.082055 -0.0060755 -0.16098 -0.046197 0.20813 0.0062759 -0.035754 0.045612 0.050275 -0.00067709 -0.17286 0.1487 -0.021355 0.021617 0.010818 0.080013 0.12002 0.026673 -0.0044552 -0.14762 0.22873 -0.086431 -0.054407 -0.14337 -0.078062 0.022282 0.010375 -0.05804 -0.061204 0.027015 -0.22025 0.15796 -0.077221 0.088206 -0.039392 -0.26979 0.11732 0.3271 0.029993 -0.048066 0.16447 -0.14198 0.19111 0.20026 0.057615 0.11199 -0.026189 0.10159 -0.078497 0.19983 0.066356 0.01034 -0.024334 
cyber 0.10314 -0.022638 0.058687 0.35598 -0.13969 0.14886 0.090046 -0.086732 0.015584 0.21896 -0.052469 0.12687 -0.018723 -0.055154 0.25311 0.10529 0.040388 0.13084 -0.04692 0.16677 0.15632 0.048593 0.0553 -0.16505 -0.31513 -0.42048 -0.025722 0.21831 -0.066244 -0.019717 0.18064 0.30908 0.031086 -0.18048 0.16908 0.091246 -0.047203 0.01373 -0.28172 -0.13048 -0.21272 0.13114 0.18912 0.038749 0.19146 -0.15273 0.40123 -0.11492 -0.016569 -0.24567 -0.064579 0.29174 0.010144 -0.047207 0.065064 0.07389 0.00098412 -0.23499 0.19918 -0.034518 0.023472 0.020733 0.11543 0.16407 0.039206 -0.0071717 -0.21592 0.32784 -0.13585 -0.078646 -0.21485 -0.097727 0.047847 0.0069946 -0.074578 -0.080551 0.033333 -0.3014 0.22769 -0.11252 0.12684 -0.048596 -0.3907 0.16546 0.47896 0.042962 -0.07317 0.22287 -0.19941 0.26653 0.28991 0.084819 0.17079 -0.031321 0.1554 -0.11286 0.28694 0.092588 0.015021 -0.026332 
personal 0.10656 -0.026268 0.059631 0.36509 -0.14516 0.15644 0.093891 -0.086467 0.017561 0.2269 -0.055875 0.12852 -0.017441 -0.057498 0.25946 0.11087 0.04525 0.13461 -0.042334 0.16974 0.1592 0.05142 0.056837 -0.16879 -0.32045 -0.43147 -0.028442 0.22465 -0.070185 -0.018647 0.18586 0.32131 0.033065 -0.1894 0.17363 0.093855 -0.047857 0.012018 -0.28962 -0.13211 -0.21689 0.13461 0.19414 0.04194 0.19682 -0.15512 0.41106 -0.11692 -0.018988 -0.24819 -0.065646 0.29956 0.0095349 -0.048768 0.069992 0.072053 -0.00097052 -0.24048 0.20666 -0.037649 0.023666 0.018988 0.11754 0.16788 0.037468 -0.0056147 -0.22271 0.339 -0.14207 -0.082495 -0.2229 -0.10397 0.046304 0.007186 -0.078639 -0.082804 0.038801 -0.31005 0.23111 -0.11318 0.13287 -0.049653 -0.40112 0.16655 0.48863 0.041948 -0.072838 0.2281 -0.20322 0.26827 0.29375 0.086407 0.17577 -0.035247 0.15788 -0.11666 0.29582 0.09479 0.014602 -0.026399 
who 0.097364 -0.021547 0.048454 0.31878 -0.12581 0.13575 0.081638 -0.075028 0.015832 0.19935 -0.049586 0.1068 -0.01554 -0.052547 0.22945 0.10121 0.03734 0.12202 -0.038872 0.15128 0.1436 0.042698 0.054101 -0.15197 -0.28154 -0.38297 -0.021716 0.20101 -0.058575 -0.014833 0.16576 0.28265 0.028887 -0.16834 0.1522 0.084219 -0.039067 0.010245 -0.25363 -0.1198 -0.19079 0.11644 0.17403 0.033732 0.17035 -0.13718 0.36053 -0.10354 -0.014133 -0.22144 -0.057716 0.26342 0.012035 -0.046279 0.056913 0.063117 0.0047306 -0.21093 0.18099 -0.033162 0.020097 0.014418 0.10681 0.15179 0.032947 -0.0059688 -0.19278 0.29382 -0.12268 -0.074327 -0.1932 -0.093777 0.040301 0.0019689 -0.067334 -0.072694 0.031753 -0.27293 0.20589 -0.10114 0.11818 -0.046144 -0.35357 0.14479 0.42889 0.038818 -0.062071 0.19895 -0.17419 0.23565 0.26127 0.074667 0.15222 -0.035652 0.13962 -0.10307 0.25601 0.082598 0.013426 -0.022071 
percent 0.10707 -0.023673 0.05827 0.36443 -0.14656 0.15575 0.092605 -0.089753 0.020337 0.22568 -0.054288 0.12741 -0.020047 -0.056022 0.25988 0.1109 0.045719 0.13405 -0.045223 0.17066 0.16211 0.05311 0.056001 -0.17188 -0.32397 -0.43154 -0.027937 0.22115 -0.071374 -0.018446 0.18528 0.32097 0.030466 -0.18732 0.17377 0.095681 -0.051007 0.010213 -0.28807 -0.13195 -0.21657 0.13489 0.19526 0.040177 0.19562 -0.15653 0.41628 -0.11827 -0.018588 -0.24816 -0.067576 0.30291 0.0083302 -0.051732 0.068986 0.073781 0.00062535 -0.24309 0.20591 -0.035516 0.022585 0.017362 0.11452 0.16735 0.037715 -0.0068856 -0.22298 0.33603 -0.13813 -0.083208 -0.22064 -0.10089 0.046537 0.0068918 -0.075705 -0.085195 0.036591 -0.31099 0.23347 -0.11403 0.13267 -0.052666 -0.40423 0.16806 0.49297 0.043601 -0.069661 0.22803 -0.20486 0.27081 0.29693 0.08638 0.1761 -0.033109 0.1599 -0.11507 0.29613 0.098429 0.014231 -0.026081 
about 0.092944 -0.024593 0.052923 0.31502 -0.12315 0.13279 0.080874 -0.077371 0.016698 0.1942 -0.046535 0.1089 -0.018663 -0.049054 0.2273 0.096985 0.039247 0.11435 -0.038595 0.14774 0.13871 0.043674 0.049053 -0.14876 -0.28087 -0.37509 -0.020776 0.19179 -0.061138 -0.015558 0.16061 0.27782 0.028724 -0.16415 0.14848 0.081425 -0.044269 0.011733 -0.24844 -0.11615 -0.18951 0.11664 0.16779 0.034429 0.16698 -0.13391 0.3608 -0.10175 -0.015546 -0.21662 -0.058932 0.2619 0.0077794 -0.044876 0.05836 0.062952 -0.00041728 -0.20691 0.17412 -0.029203 0.017667 0.014666 0.10205 0.14286 0.036241 -0.0026172 -0.19478 0.2933 -0.12124 -0.070477 -0.1899 -0.087447 0.040316 0.0052247 -0.061562 -0.070666 0.031501 -0.26905 0.20593 -0.097385 0.11164 -0.042934 -0.3481 0.14423 0.42709 0.036485 -0.063655 0.19906 -0.17788 0.23429 0.25967 0.075086 0.15287 -0.029086 0.13748 -0.099163 0.25595 0.082825 0.012618 -0.022508 
breach." 0.10021 -0.024416 0.057935 0.34194 -0.13673 0.14552 0.089584 -0.082177 0.018901 0.21278 -0.051612 0.11735 -0.017868 -0.053107 0.24598 0.10248 0.041822 0.12968 -0.042244 0.15874 0.15363 0.048143 0.052972 -0.16182 -0.30698 -0.40756 -0.025451 0.20953 -0.066624 -0.017947 0.17498 0.30342 0.030532 -0.17861 0.16464 0.090855 -0.045745 0.012782 -0.27591 -0.12576 -0.20269 0.1258 0.1839 0.038106 0.18662 -0.15024 0.38986 -0.11082 -0.017984 -0.23501 -0.062338 0.28471 0.0096517 -0.050086 0.062852 0.067929 0.0016091 -0.23006 0.19514 -0.033373 0.021543 0.014442 0.10969 0.15764 0.037239 -0.0053026 -0.20699 0.31403 -0.13197 -0.078997 -0.20818 -0.096367 0.04305 0.0080442 -0.070605 -0.079272 0.033853 -0.29256 0.21912 -0.10946 0.12557 -0.045813 -0.37787 0.15905 0.46357 0.040916 -0.06964 0.21695 -0.19325 0.25781 0.27963 0.084312 0.16695 -0.032902 0.14891 -0.11036 0.27979 0.090201 0.013854 -0.024086 
this 0.1043 -0.026343 0.056513 0.34768 -0.13532 0.15232 0.090906 -0.084207 0.017403 0.21519 -0.051245 0.12113 -0.018711 -0.054683 0.25326 0.10459 0.043113 0.13046 -0.047184 0.1639 0.1578 0.047495 0.054039 -0.16618 -0.30829 -0.41365 -0.027801 0.21685 -0.068346 -0.018315 0.1746 0.30549 0.029191 -0.18254 0.16959 0.09024 -0.047621 0.008387 -0.27871 -0.12789 -0.21084 0.13213 0.18514 0.037227 0.19069 -0.15238 0.39927 -0.11729 -0.019629 -0.24085 -0.061179 0.29174 0.0075156 -0.050635 0.06403 0.067876 7.1472e-05 -0.23352 0.20115 -0.032646 0.021701 0.014538 0.11523 0.16389 0.038158 -0.004822 -0.2106 0.32548 -0.13269 -0.080072 -0.2166 -0.096764 0.045911 0.005576 -0.076254 -0.081272 0.035213 -0.29862 0.22458 -0.10936 0.1257 -0.047317 -0.38617 0.16115 0.47426 0.043293 -0.071445 0.22153 -0.19779 0.26363 0.28503 0.087634 0.16802 -0.03194 0.15316 -0.11236 0.28753 0.09329 0.014668 -0.022484 
free 0.11424 -0.025937 0.064418 0.39665 -0.15534 0.16791 0.1018 -0.095066 0.020667 0.24507 -0.056767 0.13682 -0.020632 -0.063293 0.28398 0.11977 0.046851 0.14588 -0.046774 0.1837 0.17567 0.051971 0.060599 -0.18444 -0.34856 -0.4679 -0.027672 0.24348 -0.074589 -0.019414 0.19972 0.34658 0.036678 -0.20454 0.18622 0.10547 -0.052954 0.012152 -0.31076 -0.14125 -0.23788 0.14689 0.20715 0.042151 0.21316 -0.17152 0.44613 -0.12872 -0.019218 -0.27201 -0.070144 0.32929 0.0084932 -0.056705 0.074057 0.078949 0.001717 -0.26314 0.22149 -0.040812 0.025285 0.018996 0.12675 0.18152 0.042021 -0.0072268 -0.24274 0.36284 -0.14941 -0.090039 -0.23966 -0.10738 0.052542 0.0088378 -0.081963 -0.090878 0.043036 -0.3365 0.25625 -0.12586 0.14081 -0.056817 -0.43721 0.1801 0.52875 0.04561 -0.079643 0.2474 -0.21874 0.29484 0.32124 0.096637 0.19043 -0.03508 0.17005 -0.12639 0.32126 0.10131 0.014543 -0.025146 
(Reuters) 0.092241 -0.020607 0.053198 0.31223 -0.12395 0.13394 0.078155 -0.075253 0.01384 0.19443 -0.043735 0.10767 -0.016029 -0.049212 0.22141 0.093968 0.037866 0.11628 -0.037131 0.1458 0.13717 0.044425 0.048934 -0.1469 -0.27786 -0.37115 -0.02134 0.19156 -0.061414 -0.014103 0.15764 0.27332 0.02694 -0.16474 0.14653 0.081789 -0.042898 0.011733 -0.24844 -0.11341 -0.18519 0.11551 0.16838 0.033923 0.16945 -0.13382 0.35237 -0.099456 -0.015886 -0.2142 -0.058451 0.25844 0.0066711 -0.044558 0.057225 0.060881 -6.3164e-05 -0.20499 0.17568 -0.031159 0.019942 0.013929 0.1018 0.14611 0.033606 -0.0063964 -0.19016 0.2895 -0.11855 -0.071863 -0.19054 -0.08703 0.038782 0.0089849 -0.064406 -0.071556 0.029512 -0.26553 0.19726 -0.09913 0.11376 -0.043803 -0.34462 0.14283 0.4196 0.038027 -0.062608 0.19659 -0.17395 0.23156 0.25347 0.076324 0.15032 -0.030098 0.13468 -0.097571 0.25231 0.082435 0.0099166 -0.023629 
they 0.092726 -0.023831 0.051793 0.32746 -0.12927 0.13755 0.085659 -0.080629 0.018147 0.20229 -0.047984 0.11559 -0.019739 -0.052396 0.23551 0.099823 0.039491 0.12381 -0.043367 0.1516 0.1462 0.046786 0.051934 -0.15147 -0.28648 -0.38756 -0.022016 0.20116 -0.059807 -0.012523 0.1671 0.28794 0.027986 -0.1675 0.15585 0.084972 -0.046583 0.0099228 -0.26163 -0.11779 -0.19339 0.12122 0.17402 0.037552 0.17633 -0.14316 0.37265 -0.10863 -0.012601 -0.226 -0.060901 0.26709 0.0060595 -0.042489 0.059521 0.066612 0.0026906 -0.21681 0.18404 -0.032514 0.022444 0.0158 0.10459 0.15145 0.034689 -0.0055937 -0.19574 0.30355 -0.12441 -0.0731 -0.20207 -0.088084 0.04438 0.0062575 -0.067609 -0.07834 0.034629 -0.2773 0.21044 -0.10491 0.1202 -0.045821 -0.36302 0.14967 0.43983 0.040164 -0.064879 0.20505 -0.18261 0.24676 0.26451 0.080895 0.15918 -0.029352 0.13961 -0.10761 0.26598 0.081932 0.014041 -0.025185 
also 0.094094 -0.020521 0.05157 0.31947 -0.12805 0.13894 0.083035 -0.07895 0.016138 0.19811 -0.046049 0.11287 -0.015898 -0.047421 0.23 0.09717 0.037943 0.12132 -0.03924 0.15059 0.14301 0.046039 0.047575 -0.15442 -0.28357 -0.37726 -0.019727 0.19564 -0.063311 -0.014436 0.16205 0.28151 0.026615 -0.16326 0.1532 0.079455 -0.041924 0.012439 -0.25396 -0.11697 -0.19106 0.11978 0.16821 0.03495 0.17272 -0.14397 0.36357 -0.104 -0.018069 -0.21982 -0.059254 0.26402 0.0090746 -0.04454 0.059883 0.065326 0.0029954 -0.20952 0.17809 -0.037891 0.020103 0.015585 0.1016 0.14833 0.037534 -0.0033646 -0.19632 0.29715 -0.12338 -0.074289 -0.19346 -0.087145 0.039203 0.0062441 -0.065585 -0.071828 0.031388 -0.27112 0.20154 -0.1012 0.11501 -0.045303 -0.35181 0.146 0.42973 0.037219 -0.062811 0.20125 -0.18201 0.23834 0.25792 0.078422 0.15443 -0.027196 0.13728 -0.10303 0.25904 0.083704 0.013787 -0.022913 
"(Reporting 0.084135 -0.021618 0.049476 0.29256 -0.11809 0.12273 0.077074 -0.068928 0.014271 0.18229 -0.044311 0.10393 -0.014126 -0.042363 0.21332 0.087615 0.033739 0.11157 -0.035329 0.13717 0.12979 0.043715 0.046473 -0.14025 -0.26017 -0.34721 -0.022134 0.18069 -0.057317 -0.016401 0.1519 0.2576 0.025038 -0.15183 0.13836 0.076454 -0.038639 0.0071194 -0.23452 -0.10799 -0.17314 0.10831 0.15578 0.035029 0.15649 -0.12604 0.3345 -0.093812 -0.01233 -0.19991 -0.052095 0.24357 0.0051942 -0.040378 0.055832 0.055148 0.00095598 -0.19463 0.16889 -0.032988 0.016859 0.014764 0.092938 0.13321 0.03365 -0.0089571 -0.17784 0.27163 -0.11078 -0.066086 -0.18035 -0.082197 0.03784 0.0075683 -0.060839 -0.066661 0.030241 -0.25034 0.18677 -0.09053 0.10356 -0.040062 -0.32506 0.1358 0.35725 0.032344 -0.052545 0.16971 -0.16601 0.21805 0.23713 0.071228 0.14432 -0.026743 0.12844 -0.093979 0.237 0.077264 0.013655 -0.019794 
Friday 0.089398 -0.019162 0.05271 0.30846 -0.12093 0.12983 0.077662 -0.073702 0.017699 0.18801 -0.045469 0.10389 -0.016871 -0.047535 0.21858 0.094125 0.037785 0.1132 -0.035483 0.14263 0.13796 0.041116 0.047539 -0.14527 -0.2713 -0.36338 -0.020707 0.19033 -0.059801 -0.014903 0.15418 0.27053 0.027832 -0.15938 0.14773 0.079001 -0.042188 0.011221 -0.24139 -0.11253 -0.18272 0.1156 0.16479 0.033971 0.16768 -0.13238 0.3481 -0.098541 -0.015292 -0.20919 -0.059142 0.25323 0.0064005 -0.043691 0.053028 0.063934 0.0023808 -0.20554 0.17188 -0.02952 0.019001 0.013992 0.097848 0.14122 0.032286 -0.0044162 -0.1887 0.28268 -0.11567 -0.070083 -0.18578 -0.086261 0.0387 0.0075747 -0.064543 -0.070737 0.030645 -0.26078 0.19381 -0.09613 0.11114 -0.042363 -0.34094 0.14258 0.41132 0.035841 -0.060957 0.19399 -0.17332 0.23195 0.25203 0.075652 0.14569 -0.030796 0.13028 -0.093538 0.25084 0.08093 0.013408 -0.021133 
"It 0.072253 -0.017457 0.045161 0.25523 -0.10225 0.10882 0.064261 -0.062315 0.0095542 0.15517 -0.03665 0.088462 -0.0076027 -0.039048 0.17981 0.076142 0.031998 0.093743 -0.03106 0.12001 0.11351 0.040223 0.034818 -0.12303 -0.22825 -0.30233 -0.020637 0.15561 -0.048022 -0.012025 0.12666 0.22191 0.022872 -0.12916 0.12015 0.064289 -0.030824 0.0050468 -0.2005 -0.088605 -0.15423 0.097506 0.13824 0.031237 0.14111 -0.10954 0.28796 -0.081179 -0.012901 -0.17871 -0.046802 0.2169 0.0030854 -0.036135 0.043844 0.052911 0.0019026 -0.17006 0.14228 -0.027285 0.018037 0.010708 0.082463 0.1162 0.026601 -0.0026249 -0.15499 0.23282 -0.096136 -0.053032 -0.15502 -0.069394 0.031677 0.0027778 -0.05063 -0.062916 0.02272 -0.2139 0.16377 -0.082499 0.0947 -0.037108 -0.2805 0.11804 0.34179 0.028193 -0.048962 0.16112 -0.1431 0.19232 0.20645 0.06217 0.12423 -0.021985 0.10668 -0.083361 0.20419 0.067433 0.010403 -0.017144 
company's 0.092149 -0.020439 0.049669 0.31552 -0.12563 0.1345 0.080327 -0.075941 0.017326 0.19571 -0.045241 0.10742 -0.017942 -0.046671 0.22621 0.096589 0.040073 0.11717 -0.038432 0.14691 0.13961 0.044338 0.050971 -0.14759 -0.27778 -0.37253 -0.020068 0.19401 -0.058845 -0.015002 0.15905 0.27601 0.029013 -0.16075 0.15068 0.08278 -0.04413 0.012045 -0.25075 -0.11509 -0.18845 0.11824 0.16645 0.035567 0.17142 -0.13578 0.35586 -0.10269 -0.014715 -0.2166 -0.057638 0.26082 0.0098492 -0.046286 0.057104 0.060945 0.00081819 -0.21163 0.17739 -0.030032 0.020645 0.014164 0.099664 0.14562 0.036359 -0.0080801 -0.19107 0.29036 -0.11963 -0.071966 -0.19372 -0.088757 0.04101 0.0058891 -0.06538 -0.072631 0.033241 -0.2659 0.20099 -0.098463 0.11412 -0.042848 -0.34612 0.14424 0.42262 0.036774 -0.06062 0.19782 -0.17695 0.23419 0.25659 0.075952 0.15011 -0.030039 0.13514 -0.099947 0.25762 0.083364 0.013093 -0.022155 
July 0.10138 -0.027032 0.062007 0.35607 -0.13788 0.14941 0.090123 -0.084163 0.020681 0.22035 -0.049562 0.12386 -0.018086 -0.056906 0.25536 0.1087 0.044249 0.12952 -0.04309 0.16485 0.15528 0.050253 0.052451 -0.16806 -0.31012 -0.42141 -0.026243 0.2142 -0.066678 -0.018529 0.17964 0.31129 0.031566 -0.18141 0.16763 0.091448 -0.048184 0.011452 -0.28348 -0.12763 -0.21148 0.13359 0.19 0.034548 0.19212 -0.15524 0.40478 -0.11838 -0.017751 -0.24676 -0.06553 0.29459 0.011465 -0.051355 0.060407 0.069106 -9.4598e-05 -0.23894 0.19824 -0.035935 0.024778 0.017604 0.1146 0.16716 0.038836 -0.0079503 -0.21409 0.32882 -0.13734 -0.079985 -0.21791 -0.10058 0.043606 0.012004 -0.073281 -0.087225 0.034658 -0.29948 0.22768 -0.1096 0.1318 -0.047293 -0.3883 0.16127 0.48032 0.045112 -0.066219 0.22627 -0.19904 0.26349 0.28568 0.085239 0.17253 -0.033121 0.15316 -0.11472 0.28881 0.095056 0.014654 -0.023381 
Editing 0.10456 -0.029051 0.058936 0.35452 -0.14347 0.15334 0.093565 -0.086367 0.015216 0.22218 -0.056474 0.12579 -0.016181 -0.053652 0.25673 0.10974 0.040426 0.13355 -0.042701 0.1667 0.15881 0.050765 0.05402 -0.1676 -0.31591 -0.42116 -0.029575 0.21857 -0.068517 -0.017213 0.18515 0.31322 0.031949 -0.18644 0.16755 0.092909 -0.043989 0.010186 -0.28628 -0.12774 -0.21068 0.13055 0.18823 0.041822 0.19128 -0.1516 0.40455 -0.11485 -0.016889 -0.24494 -0.061205 0.29355 0.0077949 -0.048499 0.067645 0.068507 0.0037938 -0.2352 0.20354 -0.037863 0.020778 0.018008 0.11273 0.16049 0.039857 -0.011429 -0.21761 0.32747 -0.13568 -0.080399 -0.21729 -0.10115 0.048075 0.0078445 -0.076724 -0.081615 0.03682 -0.30257 0.22802 -0.11029 0.12713 -0.050625 -0.39694 0.16574 0.41808 0.037297 -0.064085 0.19683 -0.20169 0.26662 0.29148 0.083761 0.17137 -0.030844 0.15723 -0.11324 0.28669 0.093059 0.015404 -0.021709 
may 0.10854 -0.026953 0.066488 0.37898 -0.14853 0.16428 0.099985 -0.085436 0.02144 0.23214 -0.058359 0.12708 -0.018725 -0.05333 0.27369 0.11551 0.045276 0.14196 -0.048301 0.17638 0.16737 0.053157 0.057588 -0.17688 -0.33783 -0.45263 -0.025575 0.23471 -0.070567 -0.017732 0.19375 0.32956 0.036937 -0.20178 0.17688 0.096729 -0.055197 0.011873 -0.29925 -0.14069 -0.22986 0.1445 0.20148 0.042834 0.20599 -0.16531 0.42962 -0.12432 -0.019004 -0.2599 -0.069453 0.31329 0.012313 -0.053187 0.071529 0.077004 0.00030293 -0.24832 0.21572 -0.036702 0.026596 0.020059 0.12288 0.17636 0.045959 -0.0028112 -0.23396 0.35083 -0.14606 -0.087192 -0.23376 -0.10687 0.04564 0.012521 -0.080849 -0.08457 0.039683 -0.3255 0.24705 -0.12244 0.13394 -0.050421 -0.42171 0.17488 0.51113 0.041434 -0.069974 0.24357 -0.21334 0.28152 0.30624 0.092737 0.18431 -0.03734 0.16535 -0.12127 0.30833 0.10292 0.017238 -0.023008 
federal 0.10957 -0.026087 0.062899 0.36789 -0.14739 0.15658 0.09422 -0.088485 0.018467 0.23052 -0.05495 0.12721 -0.020682 -0.058282 0.26639 0.1129 0.044971 0.13652 -0.043537 0.17396 0.16686 0.049835 0.058736 -0.17226 -0.32675 -0.43772 -0.026532 0.2294 -0.069489 -0.017365 0.18759 0.32492 0.031306 -0.19098 0.17927 0.095367 -0.047513 0.012157 -0.29452 -0.13466 -0.22112 0.13537 0.19566 0.040062 0.20007 -0.1582 0.4214 -0.11775 -0.017693 -0.25238 -0.067813 0.30689 0.0084579 -0.055859 0.068452 0.073756 0.00222 -0.24375 0.2079 -0.038914 0.023423 0.017415 0.12102 0.16948 0.040277 -0.0034469 -0.22645 0.34307 -0.14387 -0.085291 -0.22486 -0.10257 0.047447 0.0075953 -0.078475 -0.082011 0.038299 -0.31453 0.23836 -0.1159 0.13361 -0.050185 -0.40773 0.17262 0.49692 0.045778 -0.07269 0.23106 -0.20975 0.27524 0.30064 0.091352 0.1783 -0.032725 0.16069 -0.11599 0.30026 0.097073 0.017635 -0.025878 
if 0.08223 -0.018236 0.044112 0.29372 -0.11989 0.12513 0.077088 -0.07183 0.012683 0.18429 -0.048711 0.10934 -0.012168 -0.04012 0.21597 0.089491 0.038115 0.11118 -0.036895 0.13287 0.1305 0.039584 0.046099 -0.13483 -0.26665 -0.35159 -0.016329 0.18274 -0.058443 -0.010609 0.1471 0.2605 0.025516 -0.14486 0.13637 0.079838 -0.038042 0.015582 -0.24066 -0.10987 -0.17887 0.11123 0.15248 0.034674 0.15976 -0.13344 0.33802 -0.09165 -0.012405 -0.20631 -0.053583 0.24585 0.0091124 -0.04452 0.050394 0.056393 0.0079923 -0.19673 0.16569 -0.03031 0.018746 0.015317 0.094406 0.14148 0.034973 -0.0077467 -0.18526 0.2736 -0.11336 -0.070046 -0.18153 -0.087193 0.035301 0.0062016 -0.060777 -0.069049 0.034083 -0.25079 0.19103 -0.09049 0.10617 -0.038241 -0.32889 0.13418 0.39767 0.035727 -0.055747 0.1849 -0.16695 0.21802 0.24326 0.070163 0.14443 -0.026554 0.12252 -0.09112 0.24022 0.078377 0.012342 -0.020985 
Social 0.10315 -0.026631 0.061573 0.36255 -0.14186 0.15343 0.091819 -0.08618 0.018814 0.22412 -0.053638 0.1253 -0.018944 -0.056641 0.25755 0.11234 0.043 0.13275 -0.04343 0.16731 0.15911 0.052549 0.054859 -0.1711 -0.31913 -0.43203 -0.027505 0.22374 -0.071456 -0.020983 0.1841 0.31794 0.033147 -0.1837 0.17044 0.091775 -0.047017 0.012303 -0.28811 -0.13145 -0.21281 0.13518 0.19269 0.037489 0.19657 -0.15524 0.41173 -0.11717 -0.018319 -0.2502 -0.064294 0.29751 0.0098366 -0.048166 0.064883 0.072463 -0.00015543 -0.23987 0.20287 -0.036011 0.024946 0.018713 0.11653 0.16648 0.038122 -0.0087707 -0.2218 0.3352 -0.13923 -0.083615 -0.22174 -0.10213 0.045169 0.0069641 -0.078296 -0.083688 0.038629 -0.30628 0.23054 -0.11357 0.129 -0.049998 -0.39954 0.16488 0.48647 0.04435 -0.073464 0.22855 -0.20132 0.26761 0.29509 0.086201 0.17645 -0.036175 0.15703 -0.11525 0.29592 0.096772 0.013707 -0.025808 
largest 0.098016 -0.024614 0.055798 0.33147 -0.13244 0.14147 0.083315 -0.079759 0.015964 0.20632 -0.047366 0.1171 -0.018358 -0.051286 0.23691 0.1005 0.039661 0.12139 -0.040829 0.15608 0.14977 0.046878 0.052125 -0.15575 -0.29405 -0.39237 -0.023413 0.20145 -0.06388 -0.017559 0.17089 0.29233 0.030248 -0.17549 0.15868 0.085527 -0.042743 0.012657 -0.26419 -0.12183 -0.19908 0.12448 0.17549 0.034784 0.18065 -0.1419 0.37699 -0.10845 -0.016259 -0.22909 -0.063448 0.27405 0.0097325 -0.049089 0.060827 0.065802 0.0019179 -0.2225 0.18751 -0.035174 0.022454 0.017206 0.1069 0.15239 0.035412 -0.0038077 -0.20177 0.30923 -0.12835 -0.076308 -0.20218 -0.091013 0.041998 0.0077394 -0.067606 -0.074668 0.036815 -0.2833 0.2144 -0.10406 0.11659 -0.04401 -0.3688 0.15429 0.44897 0.03896 -0.066128 0.21155 -0.18571 0.24906 0.27001 0.079842 0.1632 -0.031196 0.14362 -0.10344 0.26882 0.089663 0.012474 -0.021474 
been 0.1036 -0.022587 0.063321 0.359 -0.14209 0.1562 0.091056 -0.087356 0.016412 0.22428 -0.049692 0.12551 -0.019926 -0.057754 0.25732 0.11266 0.046187 0.13338 -0.04517 0.16664 0.15878 0.050954 0.055368 -0.16609 -0.31946 -0.42648 -0.027449 0.22031 -0.07158 -0.018236 0.18671 0.31439 0.032165 -0.1868 0.17095 0.095644 -0.052167 0.017055 -0.2857 -0.13412 -0.21318 0.13588 0.19712 0.039727 0.19338 -0.15447 0.4073 -0.11552 -0.017778 -0.249 -0.063747 0.29678 0.010246 -0.052404 0.066791 0.072429 4.3521e-05 -0.23868 0.20271 -0.034885 0.024262 0.016541 0.11341 0.1643 0.041488 -0.007912 -0.22086 0.3346 -0.14162 -0.083162 -0.21917 -0.10164 0.044088 0.0082941 -0.075045 -0.083047 0.035248 -0.30483 0.2318 -0.11497 0.13425 -0.050915 -0.39789 0.16424 0.48748 0.046068 -0.073129 0.22513 -0.2005 0.27186 0.29208 0.085749 0.17332 -0.032555 0.15645 -0.11481 0.2915 0.096547 0.014499 -0.025308 
breach, 0.091041 -0.021399 0.052575 0.30989 -0.12344 0.13083 0.079807 -0.075484 0.016664 0.19332 -0.047561 0.10608 -0.01588 -0.049104 0.2236 0.094154 0.038717 0.11737 -0.039322 0.14536 0.14059 0.042667 0.047962 -0.14769 -0.2777 -0.36873 -0.023223 0.1884 -0.060124 -0.016896 0.15767 0.2737 0.027948 -0.16217 0.14919 0.083009 -0.039116 0.011265 -0.24848 -0.1126 -0.18281 0.11377 0.16679 0.034385 0.16883 -0.13675 0.35359 -0.10108 -0.016047 -0.21314 -0.055415 0.25685 0.009569 -0.045712 0.057381 0.060179 0.00082193 -0.21028 0.17634 -0.030378 0.019905 0.012373 0.099027 0.14153 0.033884 -0.0072505 -0.18849 0.2857 -0.1199 -0.069051 -0.18937 -0.086663 0.041449 0.0083383 -0.064043 -0.071719 0.033866 -0.26504 0.19721 -0.099477 0.11511 -0.04167 -0.34291 0.14452 0.41924 0.036398 -0.062761 0.19587 -0.17439 0.2344 0.25434 0.074277 0.14963 -0.029605 0.1354 -0.099779 0.25268 0.082305 0.013288 -0.021402 
asked 0.095802 -0.021361 0.051304 0.32446 -0.12702 0.13583 0.08121 -0.077332 0.015107 0.20021 -0.048442 0.11292 -0.018146 -0.047735 0.22879 0.097822 0.040695 0.12397 -0.037103 0.15309 0.14414 0.044765 0.051429 -0.15259 -0.28563 -0.38231 -0.024426 0.19849 -0.061815 -0.016527 0.16764 0.28219 0.031133 -0.16877 0.1553 0.084115 -0.041927 0.011224 -0.25521 -0.11499 -0.19335 0.12068 0.17455 0.035638 0.17467 -0.13985 0.36469 -0.10372 -0.016734 -0.22396 -0.058784 0.26557 0.0045112 -0.045263 0.060038 0.064383 0.0033322 -0.21248 0.18125 -0.034762 0.020538 0.016911 0.10374 0.1493 0.035172 -0.0070342 -0.19764 0.29679 -0.12371 -0.072007 -0.19543 -0.090796 0.044702 0.0059061 -0.068032 -0.074014 0.033856 -0.27525 0.20537 -0.10262 0.11815 -0.045297 -0.35697 0.14947 0.43525 0.036137 -0.065344 0.20509 -0.18042 0.24097 0.26397 0.077067 0.15532 -0.033198 0.14093 -0.10168 0.26006 0.08724 0.013869 -0.023004 
statement 0.11329 -0.024124 0.065021 0.38654 -0.15459 0.16484 0.098464 -0.092911 0.019811 0.23858 -0.055168 0.1356 -0.019215 -0.060952 0.27525 0.1162 0.048115 0.14411 -0.048317 0.17881 0.17122 0.053746 0.059805 -0.17998 -0.34249 -0.4568 -0.026273 0.23797 -0.073959 -0.018515 0.19547 0.33811 0.032209 -0.20085 0.18336 0.10305 -0.052255 0.0151 -0.30781 -0.1383 -0.22957 0.14229 0.20583 0.042183 0.20673 -0.16865 0.43848 -0.12354 -0.017925 -0.2698 -0.072774 0.32262 0.0091418 -0.055071 0.071633 0.07457 0.0026843 -0.25716 0.21791 -0.040788 0.025599 0.016869 0.1252 0.17822 0.042648 -0.0073046 -0.23595 0.35961 -0.14714 -0.086941 -0.23305 -0.10775 0.050767 0.0093427 -0.079536 -0.088512 0.039624 -0.32734 0.24674 -0.12154 0.13789 -0.053909 -0.4272 0.18015 0.52176 0.048437 -0.076455 0.24302 -0.21884 0.28702 0.31494 0.092142 0.18609 -0.034935 0.16684 -0.12163 0.31549 0.101 0.015162 -0.026638 
other 0.10215 -0.025801 0.057492 0.35139 -0.13801 0.15094 0.093688 -0.084554 0.018841 0.21668 -0.051677 0.12148 -0.020422 -0.051995 0.24993 0.10272 0.042224 0.13112 -0.041961 0.16213 0.15778 0.047164 0.053331 -0.16697 -0.30935 -0.41569 -0.025566 0.21317 -0.067605 -0.018174 0.17856 0.30692 0.030395 -0.18335 0.1677 0.090079 -0.046808 0.011345 -0.28077 -0.12704 -0.21115 0.13266 0.18722 0.038953 0.18971 -0.15258 0.39831 -0.1114 -0.017222 -0.24315 -0.062135 0.29135 0.0057544 -0.048416 0.063051 0.069428 0.0036664 -0.23132 0.19706 -0.035091 0.017663 0.016952 0.11476 0.16055 0.036883 -0.0042954 -0.21516 0.32484 -0.13201 -0.076605 -0.21435 -0.098032 0.046564 0.0092916 -0.07488 -0.081076 0.034113 -0.29864 0.22377 -0.1086 0.12776 -0.049042 -0.38608 0.1612 0.47391 0.040008 -0.069692 0.22323 -0.19774 0.26305 0.28284 0.084354 0.1717 -0.031578 0.15272 -0.1139 0.28296 0.095302 0.013711 -0.023776 
did 0.091827 -0.019118 0.05161 0.30333 -0.12035 0.12947 0.077945 -0.069552 0.013896 0.18908 -0.043258 0.10433 -0.014826 -0.04442 0.21515 0.09106 0.038779 0.11015 -0.035778 0.14086 0.1345 0.045035 0.049795 -0.13892 -0.26673 -0.35799 -0.018546 0.18646 -0.056875 -0.015023 0.15369 0.26302 0.030772 -0.15786 0.13724 0.078347 -0.039776 0.011026 -0.2372 -0.10867 -0.18401 0.11112 0.16024 0.032347 0.16419 -0.13164 0.34363 -0.10098 -0.016508 -0.2062 -0.056473 0.25342 0.0039707 -0.041519 0.056233 0.056223 -0.00030603 -0.19899 0.16958 -0.031049 0.018591 0.014396 0.095876 0.13992 0.032355 -0.0044674 -0.18483 0.2783 -0.11641 -0.064372 -0.18591 -0.085259 0.040144 0.0050647 -0.062263 -0.070231 0.033724 -0.25575 0.19113 -0.099685 0.11026 -0.042668 -0.33513 0.13833 0.40289 0.031423 -0.061118 0.18861 -0.16503 0.22223 0.24414 0.072524 0.14514 -0.028675 0.13505 -0.097396 0.24503 0.08121 0.011976 -0.017693 
up 0.085991 -0.022425 0.051658 0.29695 -0.11466 0.11828 0.070505 -0.068246 0.011313 0.17756 -0.043845 0.096161 -0.015636 -0.046422 0.20829 0.090738 0.035666 0.10605 -0.037181 0.13643 0.1292 0.040312 0.049431 -0.13553 -0.26101 -0.34383 -0.021698 0.17904 -0.05882 -0.018249 0.14989 0.25847 0.026886 -0.15041 0.13515 0.072993 -0.034983 0.014673 -0.23794 -0.11037 -0.17078 0.11016 0.15726 0.029692 0.15236 -0.12635 0.33341 -0.092417 -0.012244 -0.20544 -0.049966 0.2402 0.0080454 -0.037485 0.054899 0.054412 0.0024113 -0.19549 0.16748 -0.03033 0.016599 0.014192 0.095011 0.13758 0.026655 -0.0060182 -0.18263 0.26411 -0.1135 -0.069556 -0.18406 -0.083556 0.037751 0.00836 -0.058294 -0.0696 0.023989 -0.25001 0.18558 -0.094704 0.11076 -0.036997 -0.31764 0.13378 0.39587 0.036396 -0.060138 0.19115 -0.16361 0.21682 0.23196 0.070223 0.13974 -0.02735 0.12075 -0.091744 0.24039 0.077315 0.016527 -0.021093 
when 0.1023 -0.026943 0.05901 0.36105 -0.14665 0.15001 0.091701 -0.08758 0.01637 0.22267 -0.054145 0.12621 -0.01795 -0.056759 0.25441 0.10894 0.047992 0.13297 -0.045749 0.16681 0.15879 0.048611 0.056742 -0.16835 -0.31682 -0.4246 -0.024286 0.21988 -0.068741 -0.017408 0.18392 0.3164 0.034619 -0.18484 0.17096 0.094089 -0.048009 0.010771 -0.28649 -0.13332 -0.2128 0.13252 0.19298 0.042069 0.19021 -0.15389 0.40911 -0.11372 -0.015277 -0.24787 -0.066625 0.29476 0.010436 -0.051959 0.069481 0.073591 0.0017171 -0.23499 0.2023 -0.036424 0.026564 0.019627 0.11593 0.16817 0.041321 -0.0058583 -0.21888 0.32874 -0.13872 -0.081371 -0.21838 -0.10199 0.047902 0.0063402 -0.075796 -0.082081 0.039287 -0.30359 0.23103 -0.11118 0.13049 -0.046752 -0.39731 0.16189 0.48397 0.045971 -0.072049 0.22589 -0.20079 0.266 0.28839 0.08311 0.17032 -0.037635 0.15633 -0.11578 0.28837 0.097789 0.01616 -0.025317 
Security 0.10996 -0.024922 0.059628 0.37075 -0.14561 0.15827 0.09517 -0.088532 0.020247 0.23147 -0.053235 0.12804 -0.019081 -0.055997 0.26655 0.11179 0.043565 0.13614 -0.045199 0.17319 0.16365 0.049749 0.056055 -0.17451 -0.32732 -0.44003 -0.025838 0.22807 -0.071539 -0.021165 0.18663 0.32539 0.032181 -0.19108 0.17646 0.096739 -0.051641 0.013556 -0.29592 -0.13743 -0.21988 0.13604 0.19876 0.040732 0.20181 -0.15998 0.42063 -0.11914 -0.019823 -0.25555 -0.066691 0.30584 0.011634 -0.05402 0.069723 0.075556 -0.0012487 -0.24557 0.21071 -0.035165 0.026602 0.019054 0.1221 0.17156 0.039113 -0.0067901 -0.22692 0.34127 -0.14299 -0.085741 -0.22858 -0.10269 0.049227 0.0079849 -0.07952 -0.084125 0.039351 -0.31653 0.23765 -0.1151 0.13351 -0.052849 -0.40931 0.17081 0.49989 0.042009 -0.075019 0.23278 -0.20915 0.27773 0.29998 0.090065 0.17763 -0.034539 0.16041 -0.11946 0.30155 0.10077 0.01529 -0.026735 
hack 0.12426 -0.030221 0.070938 0.41885 -0.16882 0.17796 0.10583 -0.099869 0.022526 0.26427 -0.06099 0.14678 -0.025293 -0.065703 0.29895 0.12701 0.050591 0.15311 -0.053988 0.19779 0.18523 0.057393 0.066892 -0.19677 -0.37273 -0.49579 -0.029357 0.26047 -0.080401 -0.01858 0.2134 0.37297 0.032516 -0.21795 0.19787 0.11005 -0.05324 0.013898 -0.33388 -0.15101 -0.24765 0.15466 0.2249 0.051805 0.22593 -0.17867 0.47881 -0.13462 -0.019889 -0.28737 -0.076741 0.34778 0.0088588 -0.057589 0.073156 0.083869 -0.001528 -0.27607 0.23588 -0.044497 0.026614 0.016607 0.13204 0.19591 0.047058 -0.008459 -0.25752 0.3891 -0.16379 -0.096734 -0.25514 -0.11641 0.053317 0.0064071 -0.087987 -0.1004 0.039348 -0.35957 0.2697 -0.12903 0.15422 -0.05813 -0.46209 0.19895 0.56891 0.049897 -0.085032 0.26719 -0.23672 0.31812 0.33974 0.10416 0.20034 -0.036508 0.1817 -0.13199 0.34192 0.10874 0.018984 -0.029011 
will 0.099058 -0.019823 0.05862 0.33881 -0.13674 0.14435 0.087116 -0.082917 0.018662 0.20937 -0.050686 0.11682 -0.018366 -0.049251 0.24303 0.10244 0.04337 0.12547 -0.040658 0.15776 0.15294 0.047901 0.052539 -0.15947 -0.30004 -0.40686 -0.026206 0.21098 -0.067614 -0.014035 0.17401 0.29924 0.033556 -0.17722 0.1614 0.090056 -0.04593 0.012066 -0.27161 -0.12405 -0.20286 0.12476 0.18284 0.036256 0.17994 -0.14488 0.38859 -0.11425 -0.016251 -0.23536 -0.058174 0.28214 0.0061926 -0.050016 0.062244 0.067884 0.0015929 -0.22588 0.19335 -0.034321 0.024527 0.016874 0.11275 0.15801 0.036373 -0.0081999 -0.20663 0.31717 -0.13402 -0.077592 -0.20677 -0.091665 0.042917 0.0091302 -0.072148 -0.076618 0.036321 -0.28973 0.21815 -0.1063 0.12431 -0.04669 -0.38128 0.1552 0.46113 0.043241 -0.069409 0.21693 -0.19159 0.25611 0.27713 0.082143 0.16757 -0.031883 0.15034 -0.10566 0.27691 0.089331 0.014 -0.021184 
two 0.094474 -0.018534 0.052706 0.31784 -0.12836 0.13537 0.080519 -0.077189 0.012785 0.19641 -0.046011 0.11022 -0.016381 -0.051229 0.22692 0.095321 0.042369 0.1156 -0.035201 0.15005 0.14361 0.042222 0.048795 -0.14844 -0.28273 -0.37993 -0.024165 0.19461 -0.059505 -0.017113 0.16497 0.27967 0.024599 -0.16451 0.14767 0.080517 -0.039199 0.013235 -0.25192 -0.11402 -0.18973 0.11682 0.1682 0.03556 0.16985 -0.13317 0.36084 -0.099247 -0.018082 -0.21918 -0.063875 0.26609 0.010381 -0.042698 0.054731 0.062704 -0.00213 -0.214 0.1765 -0.0278 0.018824 0.014363 0.10377 0.14605 0.033185 -0.0041483 -0.19646 0.29638 -0.12594 -0.07088 -0.1923 -0.088555 0.039865 0.0051764 -0.065958 -0.071679 0.036817 -0.27045 0.20443 -0.098248 0.1153 -0.047539 -0.35272 0.14226 0.43397 0.037809 -0.058293 0.2001 -0.18045 0.24093 0.25975 0.076762 0.15348 -0.025934 0.13908 -0.10213 0.26222 0.081802 0.010936 -0.019694 
disclosed 0.10742 -0.026971 0.05985 0.36731 -0.1462 0.1559 0.091179 -0.089171 0.017438 0.22997 -0.055437 0.12599 -0.021478 -0.05697 0.26343 0.11283 0.045245 0.13754 -0.045201 0.17185 0.16222 0.051732 0.058309 -0.17389 -0.32651 -0.43633 -0.025214 0.22472 -0.071116 -0.018085 0.18863 0.32387 0.032017 -0.19275 0.17396 0.098105 -0.050552 0.013209 -0.29141 -0.13329 -0.21925 0.13734 0.19611 0.040844 0.19831 -0.15909 0.4183 -0.12064 -0.01776 -0.25199 -0.066934 0.3049 0.0089104 -0.05287 0.069207 0.073028 -0.0019073 -0.24256 0.20571 -0.037005 0.024216 0.015061 0.11806 0.16976 0.040304 -0.0063312 -0.22474 0.34188 -0.14245 -0.084224 -0.2237 -0.10386 0.044905 0.0068808 -0.078107 -0.084315 0.038912 -0.31339 0.23503 -0.11727 0.13394 -0.04942 -0.40633 0.17096 0.49628 0.044374 -0.073002 0.23174 -0.20591 0.27396 0.30042 0.088263 0.17832 -0.03413 0.16023 -0.11717 0.29976 0.097626 0.012773 -0.027057 
three 0.10044 -0.02386 0.055853 0.35294 -0.13854 0.15014 0.089764 -0.08552 0.017365 0.21815 -0.051557 0.11905 -0.020031 -0.05304 0.25249 0.10693 0.045267 0.13077 -0.045241 0.16235 0.15514 0.046319 0.054079 -0.16471 -0.31013 -0.41768 -0.024383 0.21787 -0.065734 -0.016151 0.17779 0.31011 0.031334 -0.1815 0.16429 0.094094 -0.045923 0.011065 -0.27965 -0.12586 -0.20944 0.12903 0.18861 0.038055 0.18745 -0.15162 0.39869 -0.11368 -0.016459 -0.24023 -0.063428 0.28864 0.012646 -0.051201 0.064213 0.069317 9.0477e-05 -0.23491 0.19727 -0.034984 0.024934 0.013553 0.11266 0.16178 0.039731 -0.0095731 -0.2138 0.3274 -0.13428 -0.081005 -0.21364 -0.098478 0.048509 0.0078029 -0.074481 -0.081399 0.036867 -0.29716 0.22923 -0.1115 0.12758 -0.04995 -0.38878 0.16281 0.47418 0.043013 -0.070272 0.22251 -0.19444 0.26215 0.28687 0.0812 0.16552 -0.02928 0.15223 -0.11293 0.28445 0.092139 0.015836 -0.020985 
Inc 0.099457 -0.019281 0.05734 0.32535 -0.12853 0.1389 0.079442 -0.079438 0.012523 0.19957 -0.045016 0.11295 -0.014704 -0.051735 0.23533 0.099863 0.037084 0.12009 -0.038137 0.14941 0.14344 0.046 0.051482 -0.1505 -0.28774 -0.38334 -0.021141 0.19281 -0.060246 -0.013473 0.16641 0.28154 0.027232 -0.16699 0.15628 0.082719 -0.044445 0.01152 -0.25811 -0.11513 -0.1897 0.12045 0.17153 0.032798 0.17355 -0.13695 0.36523 -0.10045 -0.016087 -0.22392 -0.058978 0.27111 0.0071869 -0.042403 0.057494 0.062914 0.001691 -0.21593 0.18076 -0.033398 0.019586 0.016272 0.099841 0.14675 0.033024 -0.0062431 -0.19954 0.29938 -0.12421 -0.069373 -0.1955 -0.091706 0.041488 0.0063812 -0.06739 -0.072845 0.034628 -0.27592 0.20889 -0.10229 0.11524 -0.045992 -0.35948 0.14998 0.43345 0.037148 -0.064146 0.20305 -0.18094 0.2428 0.26053 0.075339 0.15752 -0.027575 0.14005 -0.10026 0.26442 0.083728 0.013305 -0.023511 
consumer 0.11215 -0.026572 0.065516 0.38983 -0.15474 0.16515 0.099705 -0.091978 0.016828 0.23996 -0.056893 0.13482 -0.022038 -0.059487 0.279 0.11951 0.048939 0.14541 -0.047135 0.18417 0.17265 0.053377 0.062368 -0.18365 -0.34355 -0.46465 -0.026657 0.23899 -0.075136 -0.019939 0.19683 0.34242 0.033992 -0.2008 0.18605 0.10141 -0.050916 0.014555 -0.31134 -0.14478 -0.23461 0.14695 0.20834 0.04145 0.21306 -0.16805 0.44328 -0.12547 -0.019066 -0.26949 -0.069264 0.32344 0.010446 -0.057249 0.071702 0.076176 0.0021941 -0.2623 0.22225 -0.040491 0.024465 0.017354 0.1277 0.17696 0.042289 -0.0093896 -0.23718 0.36252 -0.1494 -0.089335 -0.23805 -0.11047 0.052195 0.0073416 -0.080823 -0.088505 0.040973 -0.33185 0.25354 -0.12128 0.14093 -0.055411 -0.43099 0.17837 0.52711 0.045362 -0.076127 0.24528 -0.22237 0.29011 0.31826 0.094778 0.18827 -0.036697 0.17008 -0.12382 0.31895 0.10508 0.015961 -0.026988 
financial 0.10684 -0.025655 0.06154 0.36816 -0.14481 0.15604 0.090561 -0.087611 0.016696 0.22527 -0.053912 0.12615 -0.01808 -0.057288 0.2603 0.11161 0.043483 0.13473 -0.045064 0.16939 0.16223 0.05076 0.056712 -0.17115 -0.32156 -0.43265 -0.023619 0.22197 -0.070925 -0.02022 0.18671 0.31757 0.032524 -0.18685 0.17157 0.093319 -0.048108 0.012974 -0.28784 -0.13341 -0.21512 0.13658 0.19402 0.038283 0.19814 -0.1562 0.41292 -0.11898 -0.017316 -0.25211 -0.06662 0.30142 0.0088786 -0.051347 0.066334 0.071173 -0.00053457 -0.24216 0.20795 -0.036179 0.022249 0.017007 0.1182 0.16851 0.040515 -0.0074063 -0.2219 0.33691 -0.13919 -0.083451 -0.22132 -0.098384 0.045288 0.0067446 -0.076521 -0.083308 0.037982 -0.30853 0.23153 -0.11468 0.12997 -0.047957 -0.40356 0.16697 0.49041 0.045627 -0.071352 0.22855 -0.20349 0.2703 0.29608 0.086679 0.17677 -0.036204 0.15658 -0.11747 0.29455 0.094839 0.0151 -0.02428 
services 0.10554 -0.024021 0.058078 0.35707 -0.14092 0.15225 0.093061 -0.084651 0.017248 0.22206 -0.05068 0.1255 -0.019527 -0.055887 0.25595 0.10798 0.044539 0.13397 -0.043072 0.1673 0.16088 0.050395 0.055763 -0.16749 -0.31487 -0.42282 -0.025061 0.21775 -0.070415 -0.018322 0.18357 0.31482 0.030142 -0.18562 0.16973 0.092309 -0.049051 0.013695 -0.28161 -0.12893 -0.21217 0.13252 0.1891 0.038928 0.19297 -0.15296 0.40274 -0.1129 -0.016757 -0.24766 -0.065699 0.29693 0.0094346 -0.049597 0.06577 0.072022 0.0013012 -0.23824 0.2013 -0.035845 0.023955 0.016043 0.11518 0.16411 0.039344 -0.0049216 -0.21905 0.32909 -0.13728 -0.082885 -0.21814 -0.1001 0.046032 0.0099449 -0.075846 -0.080667 0.038279 -0.30447 0.23053 -0.1117 0.12654 -0.049602 -0.39509 0.16581 0.48201 0.041512 -0.070721 0.22435 -0.2007 0.26986 0.29164 0.085596 0.17288 -0.032993 0.15361 -0.11113 0.29124 0.093274 0.01498 -0.023897 
investigating 0.096791 -0.023352 0.0547 0.33366 -0.13209 0.14158 0.085559 -0.079939 0.016818 0.2089 -0.048562 0.11574 -0.017563 -0.049672 0.23932 0.10281 0.039479 0.12438 -0.041102 0.15583 0.14878 0.048545 0.051373 -0.15835 -0.29509 -0.39499 -0.023039 0.20475 -0.064991 -0.018391 0.16871 0.29309 0.029756 -0.17155 0.16147 0.087397 -0.04482 0.011051 -0.26599 -0.121 -0.19932 0.12333 0.17819 0.037669 0.17862 -0.14423 0.37972 -0.10742 -0.017128 -0.23065 -0.058144 0.27718 0.0082455 -0.047344 0.062064 0.065472 0.0023221 -0.22155 0.19068 -0.035434 0.021119 0.014139 0.10733 0.15426 0.037725 -0.0074977 -0.2015 0.31023 -0.12756 -0.075985 -0.20605 -0.094605 0.044474 0.0073841 -0.070031 -0.077322 0.034382 -0.2859 0.21435 -0.1059 0.11995 -0.046635 -0.36845 0.15395 0.42205 0.036737 -0.064124 0.1977 -0.18875 0.25031 0.27187 0.080113 0.15974 -0.031403 0.14445 -0.10573 0.26965 0.087936 0.013464 -0.023655 
into 0.093812 -0.022523 0.054125 0.32069 -0.1299 0.13895 0.079842 -0.0753 0.0188 0.20069 -0.046834 0.11127 -0.015392 -0.049461 0.23147 0.096763 0.038099 0.11987 -0.036482 0.15348 0.1463 0.042928 0.050544 -0.15259 -0.2889 -0.3829 -0.0222 0.19673 -0.06137 -0.017129 0.1643 0.28168 0.031959 -0.16684 0.15624 0.080703 -0.043939 0.0096027 -0.25485 -0.11889 -0.19149 0.12043 0.16935 0.03344 0.1785 -0.13977 0.3653 -0.10315 -0.017203 -0.21996 -0.059025 0.26952 0.0066076 -0.047954 0.061593 0.06754 0.00032798 -0.21367 0.18133 -0.0336 0.019542 0.016157 0.10717 0.14853 0.037107 -0.0062063 -0.19452 0.29806 -0.12024 -0.075191 -0.19614 -0.089826 0.040581 0.007782 -0.067071 -0.074481 0.035127 -0.27509 0.20948 -0.09842 0.1155 -0.045898 -0.35267 0.14891 0.43372 0.037839 -0.068816 0.2036 -0.18353 0.24343 0.26192 0.075855 0.15505 -0.028695 0.13869 -0.10264 0.25785 0.083338 0.012649 -0.024646 
Financial 0.11428 -0.026127 0.066816 0.3953 -0.15748 0.16744 0.099014 -0.096265 0.018029 0.24275 -0.060198 0.13507 -0.018797 -0.061544 0.27937 0.11928 0.04726 0.1458 -0.04663 0.1828 0.17291 0.054924 0.062248 -0.18319 -0.34539 -0.46431 -0.027606 0.23818 -0.075402 -0.021636 0.201 0.34271 0.03397 -0.20077 0.18471 0.10128 -0.05331 0.013921 -0.31007 -0.14346 -0.2326 0.14762 0.20882 0.041354 0.21224 -0.16786 0.44592 -0.12755 -0.017781 -0.27226 -0.072368 0.32433 0.0093704 -0.054774 0.073154 0.077241 -0.00018773 -0.26109 0.22277 -0.038959 0.021552 0.017115 0.12614 0.18069 0.043142 -0.0083633 -0.23933 0.36305 -0.15129 -0.08915 -0.23778 -0.10805 0.048741 0.0071036 -0.08155 -0.088887 0.041015 -0.33176 0.24958 -0.12361 0.14013 -0.051337 -0.43357 0.17979 0.52765 0.048221 -0.076284 0.24555 -0.21839 0.29143 0.31674 0.09336 0.18849 -0.038308 0.16798 -0.12692 0.31741 0.10337 0.015942 -0.025802 
agency 0.09167 -0.021507 0.051688 0.31348 -0.12356 0.13518 0.082179 -0.075158 0.018384 0.19414 -0.044026 0.10838 -0.014888 -0.047819 0.22368 0.095732 0.03921 0.11801 -0.039615 0.14741 0.14104 0.04312 0.052974 -0.14975 -0.27812 -0.36932 -0.021072 0.19102 -0.060959 -0.015262 0.16093 0.27552 0.02634 -0.16121 0.14802 0.079592 -0.041032 0.011416 -0.24912 -0.11343 -0.18585 0.1176 0.16606 0.035616 0.16827 -0.13545 0.35743 -0.10175 -0.01296 -0.2161 -0.056155 0.2587 0.0082003 -0.046334 0.057279 0.062749 0.0015929 -0.20637 0.18059 -0.030989 0.020247 0.014149 0.10213 0.14401 0.031891 -0.0059322 -0.19056 0.29002 -0.11895 -0.068581 -0.19302 -0.085457 0.043055 0.0086364 -0.065627 -0.072633 0.031632 -0.26415 0.20146 -0.098167 0.11158 -0.043568 -0.34697 0.14579 0.42355 0.034838 -0.062521 0.19702 -0.17641 0.2343 0.2531 0.076554 0.15245 -0.029934 0.1354 -0.099863 0.2577 0.084546 0.012063 -0.022626 
Dustin 0.06721 -0.018312 0.038878 0.2364 -0.095415 0.10006 0.064302 -0.057362 0.0096325 0.14455 -0.035676 0.083147 -0.0093504 -0.036721 0.17067 0.070837 0.028511 0.089323 -0.026427 0.10826 0.10241 0.033548 0.035745 -0.11292 -0.20883 -0.28004 -0.018943 0.14603 -0.043192 -0.010961 0.12228 0.20746 0.021044 -0.1221 0.11297 0.062605 -0.030725 0.0073942 -0.18965 -0.086288 -0.14017 0.084321 0.12543 0.026307 0.12751 -0.10154 0.26869 -0.076143 -0.012956 -0.15863 -0.041001 0.19535 0.0041604 -0.031525 0.046787 0.045126 0.00060984 -0.15739 0.13705 -0.025305 0.016049 0.013184 0.07456 0.11226 0.025173 -0.006719 -0.1424 0.21739 -0.090606 -0.054296 -0.14304 -0.067569 0.031984 0.0094761 -0.050619 -0.054877 0.023113 -0.1997 0.14915 -0.073114 0.085287 -0.033303 -0.26423 0.11264 0.31732 0.030136 -0.049216 0.1486 -0.1329 0.17852 0.19275 0.060224 0.11556 -0.020455 0.10579 -0.074339 0.19052 0.063799 0.010113 -0.016239 
including 0.10951 -0.025937 0.061596 0.37186 -0.15066 0.16054 0.094669 -0.092789 0.018071 0.23176 -0.055632 0.12954 -0.018042 -0.056965 0.26787 0.11448 0.044976 0.1388 -0.046974 0.17509 0.16434 0.054107 0.057985 -0.1762 -0.32881 -0.44145 -0.027088 0.22378 -0.071623 -0.019027 0.18886 0.32918 0.032492 -0.19204 0.17949 0.097711 -0.048137 0.011653 -0.29784 -0.13529 -0.2222 0.13964 0.19945 0.041917 0.20035 -0.15809 0.42499 -0.12191 -0.015927 -0.25679 -0.067769 0.30878 0.011328 -0.052772 0.0705 0.074265 -0.0003329 -0.24813 0.20817 -0.037189 0.022796 0.014407 0.12052 0.17036 0.040616 -0.0055465 -0.22519 0.34614 -0.14254 -0.083831 -0.23016 -0.10524 0.048449 0.0087578 -0.08099 -0.085483 0.039779 -0.31874 0.24017 -0.11753 0.13576 -0.050794 -0.41314 0.17183 0.45765 0.04125 -0.068112 0.21232 -0.20979 0.27887 0.30296 0.088676 0.17878 -0.034177 0.16245 -0.11851 0.30063 0.10007 0.014039 -0.02448 
David 0.078988 -0.020699 0.046273 0.26952 -0.10963 0.1147 0.067803 -0.064748 0.011139 0.16686 -0.039365 0.094345 -0.010606 -0.040755 0.19307 0.078349 0.031631 0.10196 -0.031759 0.12372 0.11829 0.039488 0.043131 -0.12597 -0.23944 -0.31868 -0.019927 0.16752 -0.051632 -0.013922 0.13797 0.23437 0.026934 -0.13866 0.12627 0.072522 -0.034154 0.0083774 -0.21272 -0.095975 -0.15935 0.096311 0.14306 0.032047 0.14476 -0.11444 0.3026 -0.084066 -0.015256 -0.18456 -0.049715 0.22266 0.0078428 -0.038418 0.053807 0.051637 0.00080726 -0.17643 0.15254 -0.030858 0.018126 0.01238 0.085853 0.12192 0.027489 -0.0092622 -0.16561 0.24713 -0.10511 -0.061161 -0.1617 -0.074536 0.033707 0.0080534 -0.051793 -0.060653 0.027093 -0.22388 0.17303 -0.08384 0.096381 -0.037094 -0.29714 0.12564 0.35953 0.030114 -0.053553 0.16896 -0.15035 0.20219 0.21864 0.064694 0.13032 -0.023923 0.12044 -0.084156 0.21813 0.072565 0.013493 -0.017478 
response 0.10172 -0.024072 0.056841 0.34407 -0.13785 0.14595 0.084724 -0.082834 0.021002 0.21187 -0.050492 0.11919 -0.017542 -0.051938 0.24717 0.10601 0.042825 0.12787 -0.041824 0.16054 0.15356 0.04959 0.055227 -0.16235 -0.30639 -0.40787 -0.022711 0.21048 -0.064884 -0.018065 0.1742 0.30292 0.029882 -0.17693 0.16354 0.090359 -0.04585 0.012067 -0.27447 -0.12454 -0.20583 0.1273 0.18324 0.038342 0.18666 -0.14793 0.38778 -0.11214 -0.016329 -0.23631 -0.061527 0.28411 0.0090499 -0.048386 0.063086 0.069006 0.00020304 -0.22937 0.19466 -0.035385 0.021593 0.015335 0.10953 0.15748 0.039269 -0.0053785 -0.20811 0.31936 -0.13228 -0.076764 -0.2105 -0.096113 0.045843 0.0064829 -0.071587 -0.080259 0.036694 -0.29257 0.22028 -0.10671 0.12204 -0.048004 -0.38022 0.15938 0.46238 0.042003 -0.068212 0.21653 -0.19527 0.25534 0.28117 0.083098 0.16397 -0.030027 0.1504 -0.1089 0.27974 0.091876 0.015338 -0.02487 
since 0.086491 -0.020473 0.046002 0.29515 -0.12078 0.1264 0.079016 -0.07265 0.015078 0.18377 -0.043711 0.10261 -0.014674 -0.04697 0.21315 0.092202 0.037756 0.10854 -0.037071 0.13686 0.13212 0.040709 0.045089 -0.14094 -0.2609 -0.35066 -0.022725 0.18131 -0.054772 -0.014734 0.15418 0.2601 0.025083 -0.15365 0.14066 0.080017 -0.041367 0.0099534 -0.23475 -0.10565 -0.17464 0.11168 0.15819 0.032826 0.16245 -0.12585 0.33784 -0.096102 -0.013579 -0.20298 -0.053707 0.24704 0.0062993 -0.042994 0.056031 0.058206 0.0017398 -0.19581 0.16658 -0.029538 0.020839 0.012906 0.095427 0.13869 0.032258 -0.0058331 -0.18296 0.273 -0.11521 -0.068898 -0.17873 -0.083603 0.038091 0.0077967 -0.059278 -0.066696 0.032276 -0.25202 0.19135 -0.089948 0.10455 -0.042308 -0.32831 0.13523 0.40085 0.034898 -0.057251 0.18611 -0.16468 0.22112 0.23935 0.073554 0.14609 -0.026249 0.12827 -0.097531 0.24197 0.077098 0.010832 -0.018939 
would 0.086223 -0.018814 0.052579 0.29117 -0.11597 0.12315 0.073638 -0.06789 0.015056 0.18043 -0.044605 0.10057 -0.018122 -0.047009 0.20588 0.087665 0.037057 0.1088 -0.035118 0.13806 0.12821 0.04125 0.046311 -0.13655 -0.25805 -0.34242 -0.022841 0.17851 -0.053932 -0.014716 0.14877 0.25577 0.026523 -0.15075 0.13729 0.075278 -0.040506 0.010603 -0.22765 -0.10887 -0.17273 0.10656 0.15587 0.034604 0.15747 -0.12358 0.32792 -0.094431 -0.013058 -0.19673 -0.054816 0.23992 0.010572 -0.039851 0.054148 0.057298 0.001643 -0.19155 0.16457 -0.030931 0.01722 0.012299 0.093702 0.13409 0.030516 -0.0048488 -0.17568 0.2671 -0.11066 -0.063972 -0.17638 -0.079068 0.035194 0.0047833 -0.061557 -0.065061 0.029424 -0.24662 0.18564 -0.090812 0.10403 -0.038447 -0.31792 0.1366 0.39349 0.034492 -0.054899 0.18517 -0.16284 0.21595 0.23646 0.070208 0.13779 -0.026338 0.12432 -0.092471 0.23281 0.077824 0.011421 -0.020656 
Sept. 0.084175 -0.023561 0.046387 0.29011 -0.11581 0.12299 0.073028 -0.071086 0.016003 0.18004 -0.044008 0.10065 -0.016847 -0.045682 0.21025 0.089184 0.031721 0.10602 -0.036859 0.13459 0.12855 0.040602 0.044762 -0.13902 -0.25875 -0.34619 -0.020525 0.17722 -0.055819 -0.013211 0.14885 0.25397 0.028654 -0.15119 0.13909 0.07812 -0.038109 0.010836 -0.23302 -0.10894 -0.17206 0.1061 0.15753 0.03279 0.15747 -0.1225 0.32795 -0.093887 -0.016742 -0.19738 -0.054233 0.24191 0.0060222 -0.041302 0.053382 0.056861 0.0015531 -0.19257 0.16662 -0.028966 0.019657 0.013971 0.095561 0.13545 0.032733 -0.0022454 -0.17779 0.26922 -0.10939 -0.07081 -0.17942 -0.079282 0.033336 0.0066782 -0.059437 -0.069189 0.027904 -0.24881 0.18719 -0.088829 0.10428 -0.039227 -0.31845 0.13573 0.39397 0.034878 -0.058007 0.18305 -0.16009 0.21865 0.23836 0.068851 0.1398 -0.026484 0.12673 -0.0918 0.23594 0.078266 0.015357 -0.023108 
securities 0.10665 -0.024336 0.060077 0.3622 -0.14348 0.15556 0.093118 -0.08655 0.019884 0.22315 -0.051906 0.1278 -0.019765 -0.055119 0.25911 0.10872 0.04215 0.13537 -0.043039 0.17009 0.16212 0.05032 0.054873 -0.17137 -0.31996 -0.42901 -0.027375 0.22431 -0.070036 -0.018738 0.18543 0.31965 0.032703 -0.18688 0.17371 0.094285 -0.049242 0.012489 -0.2866 -0.13239 -0.21596 0.13631 0.19226 0.040766 0.19577 -0.15507 0.40981 -0.11612 -0.017757 -0.24991 -0.066936 0.29939 0.008727 -0.052984 0.06788 0.073683 0.0010234 -0.2398 0.20491 -0.036008 0.024687 0.01749 0.11935 0.16507 0.038509 -0.0052793 -0.22266 0.33469 -0.13963 -0.081627 -0.22119 -0.10149 0.046882 0.008179 -0.077075 -0.080518 0.039637 -0.30811 0.23109 -0.11452 0.13016 -0.04902 -0.39955 0.16894 0.48743 0.042944 -0.073551 0.22714 -0.20366 0.27179 0.2963 0.087548 0.17499 -0.034034 0.15605 -0.11619 0.29195 0.096935 0.013407 -0.024731 
last 0.1009 -0.026827 0.058385 0.34288 -0.13245 0.14528 0.085181 -0.080624 0.015324 0.21053 -0.049717 0.12306 -0.019033 -0.049846 0.24508 0.10173 0.04346 0.12503 -0.043194 0.15893 0.14955 0.046132 0.05403 -0.16147 -0.29903 -0.40423 -0.024794 0.21037 -0.066488 -0.015199 0.17201 0.29733 0.028911 -0.17793 0.16088 0.089144 -0.043681 0.0096464 -0.27331 -0.12265 -0.20092 0.12738 0.1801 0.037022 0.17863 -0.14469 0.38546 -0.11151 -0.014573 -0.23231 -0.063451 0.27978 0.011176 -0.047682 0.058879 0.065123 0.00454 -0.22511 0.1919 -0.036551 0.020564 0.018153 0.10876 0.15525 0.042087 -0.0050839 -0.20582 0.31632 -0.12873 -0.07135 -0.20493 -0.096012 0.040819 0.0096648 -0.069471 -0.080699 0.032216 -0.2893 0.21562 -0.10671 0.12501 -0.045097 -0.37533 0.1575 0.45862 0.038394 -0.067473 0.21277 -0.18885 0.25668 0.27476 0.083928 0.16449 -0.032637 0.14811 -0.106 0.27629 0.091567 0.015261 -0.02317 
he 0.094896 -0.024079 0.056891 0.3223 -0.12996 0.14279 0.088798 -0.075419 0.024076 0.20121 -0.047713 0.11342 -0.014022 -0.051918 0.22897 0.10035 0.037654 0.11747 -0.03501 0.15168 0.13765 0.04723 0.055358 -0.14952 -0.28938 -0.38492 -0.028726 0.20353 -0.065044 -0.016377 0.17097 0.27893 0.026907 -0.16682 0.14674 0.082653 -0.049436 0.01683 -0.25461 -0.11463 -0.19732 0.12383 0.16819 0.037409 0.1779 -0.13833 0.36822 -0.099957 -0.014971 -0.22672 -0.059411 0.2693 0.0051276 -0.048519 0.059214 0.06348 0.0016975 -0.21652 0.18086 -0.028789 0.021342 0.014219 0.11064 0.15022 0.038095 -0.0070576 -0.20353 0.29898 -0.13005 -0.073278 -0.19427 -0.09007 0.041477 0.0058875 -0.066919 -0.078746 0.03101 -0.27346 0.20844 -0.0991 0.11354 -0.041942 -0.35367 0.14944 0.43727 0.03594 -0.062885 0.20307 -0.18298 0.24031 0.26301 0.073721 0.15526 -0.027898 0.14442 -0.10538 0.2608 0.08171 0.015703 -0.020417 
By 0.050547 -0.0098019 0.034629 0.1727 -0.065359 0.072085 0.045896 -0.038975 0.0099261 0.11263 -0.024569 0.058582 -0.011147 -0.025836 0.12528 0.046868 0.018305 0.065637 -0.020338 0.078186 0.073664 0.027543 0.024823 -0.080115 -0.15072 -0.202 -0.01636 0.10683 -0.030168 -0.012917 0.087351 0.14953 0.017136 -0.091702 0.083261 0.044642 -0.022378 0.0046203 -0.13287 -0.062966 -0.10461 0.063266 0.086838 0.022911 0.091749 -0.074811 0.1936 -0.058959 -0.0067801 -0.11883 -0.03072 0.14021 0.0076294 -0.024254 0.029814 0.034514 0.0032954 -0.11057 0.097304 -0.015418 0.0084045 0.0024413 0.056353 0.07897 0.020022 -0.0075861 -0.1092 0.15894 -0.070332 -0.039324 -0.10236 -0.048306 0.017134 0.0064626 -0.032857 -0.04085 0.013941 -0.14717 0.10936 -0.053171 0.065787 -0.023108 -0.18992 0.079187 0.22823 0.017939 -0.03631 0.10759 -0.10425 0.13472 0.14151 0.046031 0.088094 -0.014693 0.075693 -0.056086 0.13616 0.049178 0.011275 -0.0084418 
massive 0.088595 -0.020276 0.052824 0.30583 -0.11913 0.13188 0.077673 -0.073341 0.014691 0.18972 -0.046107 0.10719 -0.016979 -0.049437 0.21922 0.091865 0.03707 0.11216 -0.035778 0.143 0.13669 0.043844 0.047897 -0.14638 -0.27159 -0.36231 -0.021226 0.19038 -0.058622 -0.014249 0.15664 0.26898 0.025109 -0.159 0.14757 0.077579 -0.039927 0.010729 -0.2444 -0.11141 -0.18255 0.11395 0.1638 0.03328 0.16656 -0.13178 0.34829 -0.098481 -0.016466 -0.20893 -0.056317 0.25511 0.0078644 -0.040949 0.059875 0.060402 6.3849e-05 -0.20239 0.17432 -0.032379 0.017878 0.013101 0.097748 0.14275 0.034112 -0.0047181 -0.18866 0.28258 -0.11857 -0.06958 -0.18527 -0.087342 0.039123 0.0063016 -0.062908 -0.071188 0.032484 -0.26046 0.19685 -0.096776 0.11058 -0.041913 -0.33813 0.14102 0.4142 0.039028 -0.061557 0.19375 -0.1735 0.22773 0.24994 0.075915 0.14768 -0.028801 0.13219 -0.099658 0.24831 0.080214 0.0091971 -0.020773 
protect 0.10148 -0.025071 0.056906 0.34704 -0.13452 0.15027 0.087949 -0.083197 0.015627 0.21678 -0.049722 0.11985 -0.018217 -0.052004 0.2493 0.10445 0.041092 0.12607 -0.041935 0.16296 0.15502 0.050113 0.059235 -0.1647 -0.3075 -0.41017 -0.025798 0.21163 -0.066396 -0.016806 0.17576 0.30503 0.029492 -0.17938 0.16493 0.090809 -0.045447 0.012433 -0.27501 -0.12683 -0.20554 0.12913 0.18403 0.038187 0.18787 -0.1483 0.39503 -0.11327 -0.017566 -0.23679 -0.065586 0.28611 0.0088514 -0.047474 0.065365 0.06806 0.001066 -0.22905 0.19558 -0.035329 0.02152 0.018353 0.11156 0.15977 0.037159 -0.0058869 -0.20946 0.32017 -0.13135 -0.079087 -0.21352 -0.096634 0.044815 0.0095969 -0.07491 -0.08002 0.035562 -0.2936 0.22248 -0.10915 0.1234 -0.046423 -0.38204 0.16161 0.46901 0.042019 -0.066714 0.21775 -0.19755 0.25758 0.27991 0.085818 0.16739 -0.033921 0.14913 -0.10907 0.27998 0.093609 0.013782 -0.022084 
